{"learner":{"attributes":{"best_iteration":"66","best_score":"0.6454300037509481","scikit_learn":"{\"_estimator_type\": \"classifier\"}"},"feature_names":["ma5","bias13","ma_align","from_high_20d","stock_pct_chg_d4","stock_hdi_d4","stock_max_dd_d4","stock_cpr_d3","stock_max_dd_d3","stock_trend_r2_d3","sector_avg_loss_d3","stock_pct_chg_d2","stock_profit_d2","stock_cpr_d2","stock_max_dd_d2","stock_trend_r2_d2","stock_seal_times_d2","stock_red_session_pm_ratio_d2","sector_avg_profit_d2","stock_pct_chg_d1","stock_cpr_d1","stock_upper_shadow_d1","stock_lower_shadow_d1","stock_seal_times_d1","sector_avg_profit_d1","sector_avg_loss_d1","stock_amount_d0","stock_hdi_d0","stock_candle_d0","stock_max_dd_d0","stock_upper_shadow_d0","stock_trend_r2_d0","stock_vwap_dev_d0","stock_red_time_ratio_d0","sector_avg_profit_d0","sector_avg_loss_d0","market_limit_up_count","index_sh_pct_chg","market_total_vol_d0"],"feature_types":["float","float","int","float","float","float","float","float","float","float","float","float","float","float","float","float","int","float","float","float","float","float","float","int","float","float","float","float","int","float","float","float","float","float","float","float","int","float","float"],"gradient_booster":{"model":{"gbtree_model_param":{"num_parallel_tree":"1","num_trees":"87"},"iteration_indptr":[0,1,2,3,4,5,6,7,8,9,10,11,12,13,14,15,16,17,18,19,20,21,22,23,24,25,26,27,28,29,30,31,32,33,34,35,36,37,38,39,40,41,42,43,44,45,46,47,48,49,50,51,52,53,54,55,56,57,58,59,60,61,62,63,64,65,66,67,68,69,70,71,72,73,74,75,76,77,78,79,80,81,82,83,84,85,86,87],"tree_info":[0,0,0,0,0,0,0,0,0,0,0,0,0,0,0,0,0,0,0,0,0,0,0,0,0,0,0,0,0,0,0,0,0,0,0,0,0,0,0,0,0,0,0,0,0,0,0,0,0,0,0,0,0,0,0,0,0,0,0,0,0,0,0,0,0,0,0,0,0,0,0,0,0,0,0,0,0,0,0,0,0,0,0,0,0,0,0],"trees":[{"base_weights":[3.596847E-3,-1.5995249E-1,4.8655048E-1,-2.7564883E-1,5.253518E-1,-6.1581874E-1,7.444363E-1,-5.453644E-1,-6.6089496E-2,6.9222945E-1,-4.8147717E-1,3.7062055E-1,-8.4185135E-1,-2.039932E-1,8.6355525E-1,-8.216487E-2,-0E0,-3.5140388E-2,4.2179737E-2,1.07711606E-1,-3.0282479E-2,8.637222E-3,-1.16112664E-1,9.397218E-2,-1.9554995E-2,-1.17303E-1,-7.957724E-3,4.989302E-2,-1.3263294E-1,6.489392E-2,1.413674E-1],"categories":[],"categories_nodes":[],"categories_segments":[],"categories_sizes":[],"default_left":[0,0,0,0,0,0,0,0,0,0,0,0,0,0,0,0,0,0,0,0,0,0,0,0,0,0,0,0,0,0,0],"id":0,"left_children":[1,3,5,7,9,11,13,15,17,19,21,23,25,27,29,-1,-1,-1,-1,-1,-1,-1,-1,-1,-1,-1,-1,-1,-1,-1,-1],"loss_changes":[1.5882901E2,1.1853153E2,1.4604672E2,7.1528015E1,3.717944E1,2.2966038E1,4.8239197E1,4.1866028E1,6.897562E1,3.758206E1,9.7052E0,5.2410603E0,6.7900124E0,2.815095E1,3.362607E1,0E0,0E0,0E0,0E0,0E0,0E0,0E0,0E0,0E0,0E0,0E0,0E0,0E0,0E0,0E0,0E0],"parents":[2147483647,0,0,1,1,2,2,3,3,4,4,5,5,6,6,7,7,8,8,9,9,10,10,11,11,12,12,13,13,14,14],"right_children":[2,4,6,8,10,12,14,16,18,20,22,24,26,28,30,-1,-1,-1,-1,-1,-1,-1,-1,-1,-1,-1,-1,-1,-1,-1,-1],"split_conditions":[7.907E1,8.108E1,-9.3E-1,3.85E-2,8.521E1,3.82E-2,6.292E1,6.27E-2,5.3E-1,6.896E1,8.314E0,6.696E-1,1E0,7.842E1,1.3892E1,-8.216487E-2,-0E0,-3.5140388E-2,4.2179737E-2,1.07711606E-1,-3.0282479E-2,8.637222E-3,-1.16112664E-1,9.397218E-2,-1.9554995E-2,-1.17303E-1,-7.957724E-3,4.989302E-2,-1.3263294E-1,6.489392E-2,1.413674E-1],"split_indices":[35,24,37,29,24,3,34,14,37,34,0,13,23,18,0,0,0,0,0,0,0,0,0,0,0,0,0,0,0,0,0],"split_type":[0,0,0,0,0,0,0,0,0,0,0,0,0,0,0,0,0,0,0,0,0,0,0,0,0,0,0,0,0,0,0],"sum_hessian":[2.0002999E3,1.49315E3,5.0715E2,1.28046E3,2.1269E2,9.4479996E1,4.1266998E2,5.5524E2,7.2522E2,1.8429999E2,2.839E1,1.614E1,7.834E1,4.45E1,3.6816998E2,4.4105E2,1.14189995E2,4.7274E2,2.5248E2,1.5279E2,3.151E1,1.27699995E1,1.562E1,1.0049999E1,6.09E0,6.46E1,1.374E1,2.613E1,1.8369999E1,1.8684E2,1.8133E2],"tree_param":{"num_deleted":"0","num_feature":"39","num_nodes":"31","size_leaf_vector":"1"}},{"base_weights":[2.7793383E-2,-3.904211E-2,7.6688135E-1,-3.2137883E-1,1.3911472E-1,-7.618102E-2,9.6009296E-1,-4.5314014E-1,1.2528807E-1,-6.347093E-1,2.2992493E-1,-6.4205974E-1,4.8266754E-1,1.1421838E0,-0E0,-1.4603043E-2,-8.030925E-2,-9.8469876E-2,2.9834254E-2,-1.1337174E-1,2.3585496E-2,6.255948E-2,3.4052404E-3,-0E0,-1.5510795E-1,-0E0,1.06712155E-1,-0E0,1.4429629E-1,-8.977382E-2,6.680186E-2],"categories":[],"categories_nodes":[],"categories_segments":[],"categories_sizes":[],"default_left":[0,0,0,0,0,0,0,0,0,0,0,0,0,0,0,0,0,0,0,0,0,0,0,0,0,0,0,0,0,0,0],"id":1,"left_children":[1,3,5,7,9,11,13,15,17,19,21,23,25,27,29,-1,-1,-1,-1,-1,-1,-1,-1,-1,-1,-1,-1,-1,-1,-1,-1],"loss_changes":[1.0171704E2,9.431663E1,2.9274925E1,4.336158E1,8.010111E1,1.1224373E1,2.5572693E1,3.901792E1,1.88247E1,3.214997E1,5.943491E1,7.024801E0,3.8919547E0,6.7356567E0,1.1057104E1,0E0,0E0,0E0,0E0,0E0,0E0,0E0,0E0,0E0,0E0,0E0,0E0,0E0,0E0,0E0,0E0],"parents":[2147483647,0,0,1,1,2,2,3,3,4,4,5,5,6,6,7,7,8,8,9,9,10,10,11,11,12,12,13,13,14,14],"right_children":[2,4,6,8,10,12,14,16,18,20,22,24,26,28,30,-1,-1,-1,-1,-1,-1,-1,-1,-1,-1,-1,-1,-1,-1,-1,-1],"split_conditions":[8.395E1,9.1E-3,7.369E1,5.97E-2,-1.39E0,3.7455E0,9.094E1,-6E-2,5.368E0,5.1471E0,-1E-1,-3.8802E0,1.9E-2,-5.7143E0,4.085E-1,-1.4603043E-2,-8.030925E-2,-9.8469876E-2,2.9834254E-2,-1.1337174E-1,2.3585496E-2,6.255948E-2,3.4052404E-3,-0E0,-1.5510795E-1,-0E0,1.06712155E-1,-0E0,1.4429629E-1,-8.977382E-2,6.680186E-2],"split_indices":[25,32,35,14,37,1,25,37,0,19,37,11,3,11,9,0,0,0,0,0,0,0,0,0,0,0,0,0,0,0,0],"split_type":[0,0,0,0,0,0,0,0,0,0,0,0,0,0,0,0,0,0,0,0,0,0,0,0,0,0,0,0,0,0,0],"sum_hessian":[2.0340304E3,1.8655071E3,1.6852333E2,7.24194E2,1.1413132E3,3.0269493E1,1.3825385E2,5.617244E2,1.624695E2,1.16756165E2,1.024557E3,1.616917E1,1.4100323E1,1.1662287E2,2.1630972E1,2.2558444E2,3.3614E2,1.5890367E1,1.4657913E2,8.611536E1,3.064081E1,4.1464963E2,6.0990735E2,9.675929E0,6.493241E0,6.616624E0,7.483699E0,6.8793974E0,1.0974347E2,9.571554E0,1.2059417E1],"tree_param":{"num_deleted":"0","num_feature":"39","num_nodes":"31","size_leaf_vector":"1"}},{"base_weights":[3.0586278E-2,-1.0386663E-1,4.552998E-1,-6.3938004E-1,-2.9551443E-2,-3.4548098E-1,6.373824E-1,-8.4953195E-1,1.7246097E-1,1.6703156E-1,-2.4503769E-1,1.8991342E-1,-6.337695E-1,-5.5324084E-1,7.337512E-1,-0E0,-1.1394141E-1,6.923321E-2,-5.0731823E-2,6.284147E-2,-4.399788E-3,-9.7253986E-2,-4.076133E-3,6.812459E-2,-1.0340493E-1,3.340385E-2,-1.04622446E-1,-1.3022658E-1,1.9495405E-2,9.612442E-2,-8.206928E-2],"categories":[],"categories_nodes":[],"categories_segments":[],"categories_sizes":[],"default_left":[0,0,0,0,0,0,0,0,0,0,0,0,0,0,0,0,0,0,0,0,0,0,0,0,0,0,0,0,0,0,0],"id":2,"left_children":[1,3,5,7,9,11,13,15,17,19,21,23,25,27,29,-1,-1,-1,-1,-1,-1,-1,-1,-1,-1,-1,-1,-1,-1,-1,-1],"loss_changes":[1.16423706E2,6.025112E1,7.246642E1,3.2901787E1,5.7678276E1,1.4947921E1,4.7312943E1,1.20093155E1,1.0044367E1,5.2104317E1,7.644374E1,1.3295593E1,1.4722044E1,1.3257377E1,3.6924423E1,0E0,0E0,0E0,0E0,0E0,0E0,0E0,0E0,0E0,0E0,0E0,0E0,0E0,0E0,0E0,0E0],"parents":[2147483647,0,0,1,1,2,2,3,3,4,4,5,5,6,6,7,7,8,8,9,9,10,10,11,11,12,12,13,13,14,14],"right_children":[2,4,6,8,10,12,14,16,18,20,22,24,26,28,30,-1,-1,-1,-1,-1,-1,-1,-1,-1,-1,-1,-1,-1,-1,-1,-1],"split_conditions":[7.914E1,1.3291379E9,-9.3E-1,6.93E-2,1.7913404E9,5.4E-3,1.3668734E5,1E-1,6.78E-2,6.617E1,7.363E1,4.01E-2,-4.9555E0,3.87E-2,8.167E1,-0E0,-1.1394141E-1,6.923321E-2,-5.0731823E-2,6.284147E-2,-4.399788E-3,-9.7253986E-2,-4.076133E-3,6.812459E-2,-1.0340493E-1,3.340385E-2,-1.04622446E-1,-1.3022658E-1,1.9495405E-2,9.612442E-2,-8.206928E-2],"split_indices":[35,38,37,14,38,21,26,13,8,34,24,8,19,8,10,0,0,0,0,0,0,0,0,0,0,0,0,0,0,0,0],"split_type":[0,0,0,0,0,0,0,0,0,0,0,0,0,0,0,0,0,0,0,0,0,0,0,0,0,0,0,0,0,0,0],"sum_hessian":[2.0256821E3,1.5372944E3,4.8838763E2,1.8284619E2,1.3544482E3,8.861658E1,3.9977106E2,1.4659111E2,3.6255085E1,7.0501825E2,6.4943E2,2.951582E1,5.9100758E1,2.7996473E1,3.717746E2,1.6277594E1,1.3031352E2,2.308969E1,1.3165397E1,2.5767734E2,4.473409E2,1.729821E2,4.764479E2,2.3504623E1,6.011196E0,1.0872662E1,4.8228096E1,1.6562532E1,1.143394E1,3.569224E2,1.4852177E1],"tree_param":{"num_deleted":"0","num_feature":"39","num_nodes":"31","size_leaf_vector":"1"}},{"base_weights":[3.1539574E-2,-9.225155E-2,4.3189383E-1,-1.5229796E-1,7.265682E-1,-2.6098964E-1,6.1041546E-1,-3.381453E-1,7.754804E-2,-1.20158836E-1,8.7387824E-1,-5.200964E-1,5.283787E-1,-2.5291524E-3,7.515013E-1,-4.931514E-2,3.557403E-2,3.4193564E-2,-2.271094E-2,6.299151E-2,1.4663021E-1,-1.2456142E-1,-2.3573799E-2,-0E0,1.4706214E-1,6.606684E-2,-8.00455E-2,7.7935755E-3,1.0836586E-1],"categories":[],"categories_nodes":[],"categories_segments":[],"categories_sizes":[],"default_left":[0,0,0,0,0,0,0,0,0,0,0,0,0,0,0,0,0,0,0,0,0,0,0,0,0,0,0,0,0],"id":3,"left_children":[1,3,5,7,9,11,13,15,17,-1,19,21,23,25,27,-1,-1,-1,-1,-1,-1,-1,-1,-1,-1,-1,-1,-1,-1],"loss_changes":[1.00985176E2,7.5447464E1,6.0445892E1,6.21354E1,2.8362873E1,2.0774399E1,3.441771E1,3.744037E1,3.587273E1,0E0,7.9145203E0,1.0597355E1,8.208485E0,2.7598827E1,3.1174377E1,0E0,0E0,0E0,0E0,0E0,0E0,0E0,0E0,0E0,0E0,0E0,0E0,0E0,0E0],"parents":[2147483647,0,0,1,1,2,2,3,3,4,4,5,5,6,6,7,7,8,8,10,10,11,11,12,12,13,13,14,14],"right_children":[2,4,6,8,10,12,14,16,18,-1,20,22,24,26,28,-1,-1,-1,-1,-1,-1,-1,-1,-1,-1,-1,-1,-1,-1],"split_conditions":[7.914E1,8.395E1,-9.3E-1,2.4E-2,5.94E0,-1E0,6.442E1,8.01E-1,7.407E1,-1.20158836E-1,5.714E-1,5.885E-1,7.034E-1,7.457E1,4E1,-4.931514E-2,3.557403E-2,3.4193564E-2,-2.271094E-2,6.299151E-2,1.4663021E-1,-1.2456142E-1,-2.3573799E-2,-0E0,1.4706214E-1,6.606684E-2,-8.00455E-2,7.7935755E-3,1.0836586E-1],"split_indices":[35,25,37,30,27,28,34,15,35,0,13,7,15,10,36,0,0,0,0,0,0,0,0,0,0,0,0,0,0],"split_type":[0,0,0,0,0,0,0,0,0,0,0,0,0,0,0,0,0,0,0,0,0,0,0,0,0,0,0,0,0],"sum_hessian":[2.0235377E3,1.5441744E3,4.7936322E2,1.4420513E3,1.02123215E2,9.631716E1,3.8304605E2,8.002599E2,6.417914E2,6.213967E0,9.590925E1,7.448783E1,2.1829329E1,7.015366E1,3.128924E2,7.208123E2,7.944756E1,3.6412677E2,2.7766464E2,5.2778408E1,4.313084E1,2.5006315E1,4.9481518E1,1.4144187E1,7.6851416E0,3.730077E1,3.2852894E1,5.8797867E1,2.5409453E2],"tree_param":{"num_deleted":"0","num_feature":"39","num_nodes":"29","size_leaf_vector":"1"}},{"base_weights":[4.6853614E-3,-2.182874E-1,2.3936352E-1,-2.975324E-1,4.7113478E-1,1.6306347E-1,8.4561044E-1,-4.0952727E-1,1.45743E-1,8.286369E-1,-6.5794066E-2,-1.9411184E-2,3.7868926E-1,4.833033E-2,1.0321106E0,-4.593107E-3,-6.269964E-2,-7.917887E-2,3.793472E-2,-5.2452613E-2,1.2528276E-1,-1.1118249E-1,4.9855236E-2,-2.0395417E-2,5.2600976E-2,2.8681314E-2,9.694672E-2,-7.57871E-2,8.079246E-2,3.3411812E-2,1.4007974E-1],"categories":[],"categories_nodes":[],"categories_segments":[],"categories_sizes":[],"default_left":[0,0,0,0,0,0,0,0,0,0,0,0,0,0,0,0,0,0,0,0,0,0,0,0,0,0,0,0,0,0,0],"id":4,"left_children":[1,3,5,7,9,11,13,15,17,19,21,23,25,27,29,-1,-1,-1,-1,-1,-1,-1,-1,-1,-1,-1,-1,-1,-1,-1,-1],"loss_changes":[1.0588048E2,5.6562836E1,4.395138E1,4.6729675E1,2.1505178E1,3.5289036E1,1.43474045E1,3.0383408E1,2.5582153E1,1.9654873E1,1.9281382E1,3.261276E1,2.252871E1,1.1343723E1,5.873726E0,0E0,0E0,0E0,0E0,0E0,0E0,0E0,0E0,0E0,0E0,0E0,0E0,0E0,0E0,0E0,0E0],"parents":[2147483647,0,0,1,1,2,2,3,3,4,4,5,5,6,6,7,7,8,8,9,9,10,10,11,11,12,12,13,13,14,14],"right_children":[2,4,6,8,10,12,14,16,18,20,22,24,26,28,30,-1,-1,-1,-1,-1,-1,-1,-1,-1,-1,-1,-1,-1,-1,-1,-1],"split_conditions":[7.618E1,5.72E-2,8.334E1,8.021E1,-1E-2,2.32E-2,-3.3445E0,-3.5316E0,2.4554617E5,6.77E-2,4.4E-1,2.9354E1,8.029E1,1.138E1,2.15E-2,-4.593107E-3,-6.269964E-2,-7.917887E-2,3.793472E-2,-5.2452613E-2,1.2528276E-1,-1.1118249E-1,4.9855236E-2,-2.0395417E-2,5.2600976E-2,2.8681314E-2,9.694672E-2,-7.57871E-2,8.079246E-2,3.3411812E-2,1.4007974E-1],"split_indices":[18,30,25,24,37,30,11,4,26,31,37,0,35,27,14,0,0,0,0,0,0,0,0,0,0,0,0,0,0,0,0],"split_type":[0,0,0,0,0,0,0,0,0,0,0,0,0,0,0,0,0,0,0,0,0,0,0,0,0,0,0,0,0,0,0],"sum_hessian":[2.018327E3,1.0318693E3,9.864577E2,9.285429E2,1.03326385E2,8.8087634E2,1.055814E2,7.440255E2,1.8451741E2,6.2918324E1,4.0408062E1,4.7456863E2,4.0630768E2,2.2039265E1,8.354213E1,1.770659E2,5.669596E2,2.9570417E1,1.5494699E2,7.811412E0,5.5106915E1,1.4826759E1,2.55813E1,3.6059314E2,1.13975494E2,3.116709E2,9.4636795E1,9.425551E0,1.2613712E1,1.53673315E1,6.8174805E1],"tree_param":{"num_deleted":"0","num_feature":"39","num_nodes":"31","size_leaf_vector":"1"}},{"base_weights":[-1.2732962E-2,-2.1857765E-1,2.0211063E-1,-6.1821777E-1,1.0004545E-2,2.627552E-1,-5.523517E-1,-1.1418046E0,-4.412321E-1,-1.00166164E-1,6.7630136E-1,-1.937119E-1,3.6443216E-1,-0E0,-1.8127672E-1,-7.809228E-2,-1.8186419E-1,-7.244017E-2,2.0751214E-2,-3.5904676E-2,2.5843864E-2,1.138718E-1,-1.1917276E-2,2.6053779E-2,-6.743271E-2,-2.6525695E-2,5.4083023E-2,-6.6732556E-2,9.018009E-2],"categories":[],"categories_nodes":[],"categories_segments":[],"categories_sizes":[],"default_left":[0,0,0,0,0,0,0,0,0,0,0,0,0,0,0,0,0,0,0,0,0,0,0,0,0,0,0,0,0],"id":5,"left_children":[1,3,5,7,9,11,13,15,17,19,21,23,25,27,-1,-1,-1,-1,-1,-1,-1,-1,-1,-1,-1,-1,-1,-1,-1],"loss_changes":[8.900536E1,9.507808E1,4.4796097E1,3.1528305E1,4.9129063E1,4.2710712E1,3.7465218E1,1.1446152E1,2.9541252E1,3.558425E1,2.155772E1,2.5705921E1,3.8297424E1,2.097736E1,0E0,0E0,0E0,0E0,0E0,0E0,0E0,0E0,0E0,0E0,0E0,0E0,0E0,0E0,0E0],"parents":[2147483647,0,0,1,1,2,2,3,3,4,4,5,5,6,6,7,7,8,8,9,9,10,10,11,11,12,12,13,13],"right_children":[2,4,6,8,10,12,14,16,18,20,22,24,26,28,-1,-1,-1,-1,-1,-1,-1,-1,-1,-1,-1,-1,-1,-1,-1],"split_conditions":[7.618E1,5.05289E5,8.169E1,7.261E1,8.138E1,2.76E-2,7.393E1,7.145E1,2.7958E1,4.974E-1,2E0,1.3446E0,7.043E1,7.63E-2,-1.8127672E-1,-7.809228E-2,-1.8186419E-1,-7.244017E-2,2.0751214E-2,-3.5904676E-2,2.5843864E-2,1.138718E-1,-1.1917276E-2,2.6053779E-2,-6.743271E-2,-2.6525695E-2,5.4083023E-2,-6.6732556E-2,9.018009E-2],"split_indices":[18,26,10,24,24,29,25,35,0,15,28,1,10,6,0,0,0,0,0,0,0,0,0,0,0,0,0,0,0],"split_type":[0,0,0,0,0,0,0,0,0,0,0,0,0,0,0,0,0,0,0,0,0,0,0,0,0,0,0,0,0],"sum_hessian":[2.0075098E3,1.0286729E3,9.7883685E2,3.7520395E2,6.5346893E2,9.0916754E2,6.9669304E1,8.958388E1,2.8562006E2,5.6052466E2,9.294427E1,1.6263594E2,7.465316E2,4.5881775E1,2.3787529E1,4.3043144E1,4.6540733E1,2.2784956E2,5.77705E1,3.4665875E2,2.1386594E2,6.9811226E1,2.3133038E1,7.542287E1,8.721307E1,9.30839E1,6.534477E2,2.7006065E1,1.887571E1],"tree_param":{"num_deleted":"0","num_feature":"39","num_nodes":"29","size_leaf_vector":"1"}},{"base_weights":[3.0236203E-2,-6.228057E-2,3.852626E-1,-2.417465E-1,1.2206299E-1,-4.683075E-1,4.7600532E-1,-5.440677E-1,-4.549232E-2,1.9605914E-1,-4.58041E-1,-1.1401678E0,-0E0,-0E0,6.2979174E-1,-7.013945E-2,5.0149594E-2,-8.489716E-2,1.6538664E-3,1.0211343E-2,9.419154E-2,5.122915E-3,-1.0189145E-1,-1.7032075E-1,-3.5281274E-2,-1.0996527E-1,6.8383686E-2,-1.1889635E-1,2.6416065E-2,8.767046E-2,-5.3727085E-4],"categories":[],"categories_nodes":[],"categories_segments":[],"categories_sizes":[],"default_left":[0,0,0,0,0,0,0,0,0,0,0,0,0,0,0,0,0,0,0,0,0,0,0,0,0,0,0,0,0,0,0],"id":6,"left_children":[1,3,5,7,9,11,13,15,17,19,21,23,25,27,29,-1,-1,-1,-1,-1,-1,-1,-1,-1,-1,-1,-1,-1,-1,-1,-1],"loss_changes":[6.61906E1,5.266558E1,3.280376E1,4.700602E1,3.326806E1,1.3877635E1,2.7925056E1,1.2970367E1,2.0453453E1,4.3974644E1,1.8199947E1,6.514759E-1,1.3571552E1,2.1282E1,1.9375237E1,0E0,0E0,0E0,0E0,0E0,0E0,0E0,0E0,0E0,0E0,0E0,0E0,0E0,0E0,0E0,0E0],"parents":[2147483647,0,0,1,1,2,2,3,3,4,4,5,5,6,6,7,7,8,8,9,9,10,10,11,11,12,12,13,13,14,14],"right_children":[2,4,6,8,10,12,14,16,18,20,22,24,26,28,30,-1,-1,-1,-1,-1,-1,-1,-1,-1,-1,-1,-1,-1,-1,-1,-1],"split_conditions":[7.966E1,7.618E1,2.63E-2,5.4408394E5,8.255E1,4.08E-2,7.165E1,9.44E-1,6.692E1,8.108E1,6.699E1,1.354E1,7.165E1,3.44E-1,1.26E0,-7.013945E-2,5.0149594E-2,-8.489716E-2,1.6538664E-3,1.0211343E-2,9.419154E-2,5.122915E-3,-1.0189145E-1,-1.7032075E-1,-3.5281274E-2,-1.0996527E-1,6.8383686E-2,-1.1889635E-1,2.6416065E-2,8.767046E-2,-5.3727085E-4],"split_indices":[24,18,29,26,18,6,25,17,10,18,34,0,35,17,37,0,0,0,0,0,0,0,0,0,0,0,0,0,0,0,0],"split_type":[0,0,0,0,0,0,0,0,0,0,0,0,0,0,0,0,0,0,0,0,0,0,0,0,0,0,0,0,0,0,0],"sum_hessian":[1.9969214E3,1.582339E3,4.1458246E2,8.05428E2,7.7691095E2,3.7387943E1,3.7719452E2,3.1253378E2,4.9289423E2,6.925824E2,8.432853E1,1.5098185E1,2.2289759E1,9.228797E1,2.8490656E2,3.023027E2,1.0231056E1,4.050438E1,4.5238983E2,5.869624E2,1.05620026E2,3.6211357E1,4.8117172E1,8.90803E0,6.190155E0,7.191031E0,1.5098727E1,1.5527261E1,7.676071E1,2.4761946E2,3.728709E1],"tree_param":{"num_deleted":"0","num_feature":"39","num_nodes":"31","size_leaf_vector":"1"}},{"base_weights":[-1.168169E-3,-2.0478222E-1,1.8608515E-1,9.959428E-1,-2.4262443E-1,1.03563175E-1,7.0025355E-1,2.9280486E-2,1.4979117E-1,-5.7378316E-1,-8.8863716E-2,-8.5634835E-2,2.6765352E-1,1.305416E-1,2.9942483E-1,-7.652783E-2,1.0232173E-1,5.0168653E-4,-4.7845725E-2,2.7419439E-2,-3.335479E-2,5.296539E-3,5.5362925E-2,-5.6005415E-2,8.388868E-2],"categories":[],"categories_nodes":[],"categories_segments":[],"categories_sizes":[],"default_left":[0,0,0,0,0,0,0,0,0,0,0,0,0,0,0,0,0,0,0,0,0,0,0,0,0],"id":7,"left_children":[1,3,5,7,9,11,13,-1,-1,15,17,19,21,-1,23,-1,-1,-1,-1,-1,-1,-1,-1,-1,-1],"loss_changes":[7.6290245E1,4.3159187E1,4.271618E1,2.5620995E0,4.65569E1,2.8251019E1,1.908287E1,0E0,0E0,2.7561005E1,1.9153717E1,2.5297316E1,2.0264343E1,0E0,2.375701E1,0E0,0E0,0E0,0E0,0E0,0E0,0E0,0E0,0E0,0E0],"parents":[2147483647,0,0,1,1,2,2,3,3,4,4,5,5,6,6,9,9,10,10,11,11,12,12,14,14],"right_children":[2,4,6,8,10,12,14,-1,-1,16,18,20,22,-1,24,-1,-1,-1,-1,-1,-1,-1,-1,-1,-1],"split_conditions":[6.667136E5,1.0850397E9,8.051E1,5.261E-1,3.15E-2,7.515E1,6.78E-2,2.9280486E-2,1.4979117E-1,2.336E1,1.8533686E9,3.571E-1,5.65E-2,1.305416E-1,7.632E1,-7.652783E-2,1.0232173E-1,5.0168653E-4,-4.7845725E-2,2.7419439E-2,-3.335479E-2,5.296539E-3,5.5362925E-2,-5.6005415E-2,8.388868E-2],"split_indices":[26,38,35,7,14,24,3,0,0,27,38,13,29,0,25,0,0,0,0,0,0,0,0,0,0],"split_type":[0,0,0,0,0,0,0,0,0,0,0,0,0,0,0,0,0,0,0,0,0,0,0,0,0],"sum_hessian":[1.9956812E3,9.5970325E2,1.0359779E3,2.6390821E1,9.3331244E2,8.9749396E2,1.3848401E2,9.193162E0,1.7197659E1,2.9096817E2,6.4234424E2,4.1323035E2,4.842636E2,6.6614914E1,7.1869095E1,2.8070486E2,1.0263286E1,4.9204648E2,1.5029778E2,1.5385217E2,2.5937817E2,2.2950252E2,2.5476108E2,2.3248617E1,4.862048E1],"tree_param":{"num_deleted":"0","num_feature":"39","num_nodes":"25","size_leaf_vector":"1"}},{"base_weights":[5.6717666E-3,-4.8424486E-2,6.2261885E-1,-1.5866292E-1,2.1505426E-1,1.2739761E-1,8.834136E-1,-4.7777215E-1,-2.2688124E-2,2.9781893E-1,-2.0293128E-1,7.124419E-1,-3.6580426E-1,5.3520936E-1,1.4156955E-1,4.1536003E-2,-6.6936925E-2,-4.2329088E-2,8.204748E-3,5.76281E-2,1.6670097E-2,-1.3928771E-1,-0E0,1.134924E-2,1.2621899E-1,-0E0,-1.3920443E-1,-9.526125E-3,8.339792E-2],"categories":[],"categories_nodes":[],"categories_segments":[],"categories_sizes":[],"default_left":[0,0,0,0,0,0,0,0,0,0,0,0,0,0,0,0,0,0,0,0,0,0,0,0,0,0,0,0,0],"id":8,"left_children":[1,3,5,7,9,11,13,15,17,19,21,23,25,27,-1,-1,-1,-1,-1,-1,-1,-1,-1,-1,-1,-1,-1,-1,-1],"loss_changes":[6.6722244E1,5.2654827E1,1.9104576E1,5.493405E1,1.8674725E1,1.8474047E1,6.717308E0,2.5744286E1,2.7666332E1,1.1917049E1,1.6792686E1,4.317831E0,9.735146E0,6.305889E0,0E0,0E0,0E0,0E0,0E0,0E0,0E0,0E0,0E0,0E0,0E0,0E0,0E0,0E0,0E0],"parents":[2147483647,0,0,1,1,2,2,3,3,4,4,5,5,6,6,7,7,8,8,9,9,10,10,11,11,12,12,13,13],"right_children":[2,4,6,8,10,12,14,16,18,20,22,24,26,28,-1,-1,-1,-1,-1,-1,-1,-1,-1,-1,-1,-1,-1,-1,-1],"split_conditions":[8.395E1,4.1667E0,7.455E1,9.9E-3,3.34E-2,5.3E-3,1.445E-1,1.2077558E9,3.314355E5,3.693E-1,3.86E-2,4.455E-1,5.49E-2,-7.4627E0,1.4156955E-1,4.1536003E-2,-6.6936925E-2,-4.2329088E-2,8.204748E-3,5.76281E-2,1.6670097E-2,-1.3928771E-1,-0E0,1.134924E-2,1.2621899E-1,-0E0,-1.3920443E-1,-9.526125E-3,8.339792E-2],"split_indices":[25,19,18,30,21,21,3,38,26,13,21,13,8,19,0,0,0,0,0,0,0,0,0,0,0,0,0,0,0],"split_type":[0,0,0,0,0,0,0,0,0,0,0,0,0,0,0,0,0,0,0,0,0,0,0,0,0,0,0,0,0],"sum_hessian":[1.9697893E3,1.8107417E3,1.5904765E2,1.2811508E3,5.2959094E2,5.795818E1,1.0108947E2,3.7788818E2,9.032626E2,4.4551605E2,8.407489E1,2.7402416E1,3.0555763E1,5.162886E1,4.946061E1,3.1101303E1,3.4678687E2,1.9739383E2,7.058688E2,2.0115022E2,2.4436583E2,1.28474865E1,7.12274E1,1.2258858E1,1.51435585E1,2.2316666E1,8.239099E0,8.989595E0,4.2639267E1],"tree_param":{"num_deleted":"0","num_feature":"39","num_nodes":"29","size_leaf_vector":"1"}},{"base_weights":[-2.609033E-2,-2.6421282E-1,1.00882135E-1,-3.4405854E-1,4.4988307E-1,-6.0073924E-1,1.5329106E-1,-6.961712E-1,-1.7649217E-1,-0E0,9.733295E-1,-9.691738E-1,1.05241254E-1,3.820021E-1,8.4303E-4,-5.1916838E-2,-1.3056584E-1,-3.619723E-2,3.5256278E-2,3.4398295E-2,-1.2015547E-1,2.405056E-2,1.3333592E-1,-1.4026307E-1,3.693547E-2,-9.720943E-2,6.9561526E-2,2.6894368E-2,8.699502E-2,7.112428E-3,-1.2643567E-1],"categories":[],"categories_nodes":[],"categories_segments":[],"categories_sizes":[],"default_left":[0,0,0,0,0,0,0,0,0,0,0,0,0,0,0,0,0,0,0,0,0,0,0,0,0,0,0,0,0,0,0],"id":9,"left_children":[1,3,5,7,9,11,13,15,17,19,21,23,25,27,29,-1,-1,-1,-1,-1,-1,-1,-1,-1,-1,-1,-1,-1,-1,-1,-1],"loss_changes":[5.9553272E1,3.932196E1,4.647145E1,3.5048447E1,1.4772861E1,2.4174206E1,4.096454E1,1.6994415E1,2.5265284E1,1.1262165E1,7.8562737E-1,1.7050095E1,1.4002192E1,2.3825462E1,4.3060696E1,0E0,0E0,0E0,0E0,0E0,0E0,0E0,0E0,0E0,0E0,0E0,0E0,0E0,0E0,0E0,0E0],"parents":[2147483647,0,0,1,1,2,2,3,3,4,4,5,5,6,6,7,7,8,8,9,9,10,10,11,11,12,12,13,13,14,14],"right_children":[2,4,6,8,10,12,14,16,18,20,22,24,26,28,30,-1,-1,-1,-1,-1,-1,-1,-1,-1,-1,-1,-1,-1,-1,-1,-1],"split_conditions":[7.405E1,8.204E1,-1.39E0,3.35E-2,1.315E1,2.6639E0,-6E-2,7.223E1,6.7347E0,1.114E1,-1.6984E0,7.983E1,7.4E1,7.829E1,8.279E1,-5.1916838E-2,-1.3056584E-1,-3.619723E-2,3.5256278E-2,3.4398295E-2,-1.2015547E-1,2.405056E-2,1.3333592E-1,-1.4026307E-1,3.693547E-2,-9.720943E-2,6.9561526E-2,2.6894368E-2,8.699502E-2,7.112428E-3,-1.2643567E-1],"split_indices":[18,24,37,14,5,19,37,18,19,5,11,10,36,25,10,0,0,0,0,0,0,0,0,0,0,0,0,0,0,0,0],"split_type":[0,0,0,0,0,0,0,0,0,0,0,0,0,0,0,0,0,0,0,0,0,0,0,0,0,0,0,0,0,0,0],"sum_hessian":[1.9575356E3,6.83933E2,1.2736027E3,6.180443E2,6.588867E1,8.4939026E1,1.1886636E3,1.9417104E2,4.238733E2,3.800145E1,2.7887222E1,5.6614174E1,2.832485E1,4.7022507E2,7.1843854E2,1.2109688E2,7.307415E1,3.3792322E2,8.595008E1,3.1820663E1,6.1807847E0,6.651581E0,2.1235641E1,5.0126957E1,6.4872165E0,8.071366E0,2.0253485E1,3.273374E2,1.4288766E2,6.84059E2,3.4379494E1],"tree_param":{"num_deleted":"0","num_feature":"39","num_nodes":"31","size_leaf_vector":"1"}},{"base_weights":[8.369608E-3,-1.3703297E-1,2.1623634E-1,-5.5310315E-1,-6.165707E-2,9.690792E-2,6.4369094E-1,-7.207365E-1,1.7273894E-1,5.1749352E-2,-2.4062996E-1,-2.3558722E-1,2.666463E-1,-3.272161E-1,7.500482E-1,-1.1936872E-1,-8.2552135E-3,6.333192E-2,-4.1611206E-2,-1.3343075E-2,3.9991155E-2,-6.057865E-2,1.4955765E-3,1.3897438E-1,-4.42587E-2,-4.3775585E-2,4.5249946E-2,-1.0489157E-1,1.7576326E-2,4.2000346E-2,1.1033928E-1],"categories":[],"categories_nodes":[],"categories_segments":[],"categories_sizes":[],"default_left":[0,0,0,0,0,0,0,0,0,0,0,0,0,0,0,0,0,0,0,0,0,0,0,0,0,0,0,0,0,0,0],"id":10,"left_children":[1,3,5,7,9,11,13,15,17,19,21,23,25,27,29,-1,-1,-1,-1,-1,-1,-1,-1,-1,-1,-1,-1,-1,-1,-1,-1],"loss_changes":[5.9211685E1,3.498025E1,4.0036194E1,2.2080647E1,2.0115715E1,3.6176033E1,1.9084404E1,2.3675682E1,6.681844E0,2.765287E1,2.6389465E1,3.9465828E1,3.0000475E1,5.8419776E0,8.137047E0,0E0,0E0,0E0,0E0,0E0,0E0,0E0,0E0,0E0,0E0,0E0,0E0,0E0,0E0,0E0,0E0],"parents":[2147483647,0,0,1,1,2,2,3,3,4,4,5,5,6,6,7,7,8,8,9,9,10,10,11,11,12,12,13,13,14,14],"right_children":[2,4,6,8,10,12,14,16,18,20,22,24,26,28,30,-1,-1,-1,-1,-1,-1,-1,-1,-1,-1,-1,-1,-1,-1,-1,-1],"split_conditions":[7.634E1,2.3802995E5,8.051E1,2.1100521E9,1.853045E9,1.539293E9,1.613757E5,4.39E-2,4.887E-1,2.3256E0,2.1100521E9,1.06668243E9,2.4E-2,1.69E-2,3.8E1,-1.1936872E-1,-8.2552135E-3,6.333192E-2,-4.1611206E-2,-1.3343075E-2,3.9991155E-2,-6.057865E-2,1.4955765E-3,1.3897438E-1,-4.42587E-2,-4.3775585E-2,4.5249946E-2,-1.0489157E-1,1.7576326E-2,4.2000346E-2,1.1033928E-1],"split_indices":[25,26,35,38,38,38,26,29,9,4,38,38,29,21,36,0,0,0,0,0,0,0,0,0,0,0,0,0,0,0,0],"split_type":[0,0,0,0,0,0,0,0,0,0,0,0,0,0,0,0,0,0,0,0,0,0,0,0,0,0,0,0,0,0,0],"sum_hessian":[1.9507601E3,1.1441703E3,8.0658997E2,1.7031651E2,9.7385376E2,6.3540344E2,1.7118652E2,1.4000714E2,3.0309362E1,5.92119E2,3.8173474E2,2.1154419E2,4.2385922E2,1.508242E1,1.561041E2,9.620345E1,4.380369E1,1.9654186E1,1.0655177E1,3.7260065E2,2.1951837E2,1.8855675E2,1.93178E2,1.5968984E1,1.9557521E2,6.029424E1,3.6356497E2,7.542647E0,7.539774E0,5.0998207E1,1.05105896E2],"tree_param":{"num_deleted":"0","num_feature":"39","num_nodes":"31","size_leaf_vector":"1"}},{"base_weights":[1.6870165E-2,7.8828526E-1,-3.4194062E-3,-1.873369E-2,9.80226E-1,-1.7009723E-1,8.461545E-2,1.0840287E0,1.11423135E-2,-1.13718264E-1,-8.536617E-1,1.9503194E-1,-1.4153072E-1,1.6298292E-2,1.4612785E-1,-3.4997903E-2,1.1105452E-2,6.491107E-3,-1.3237321E-1,4.430387E-2,-5.973163E-3,-6.5132074E-2,4.6758755E-4],"categories":[],"categories_nodes":[],"categories_segments":[],"categories_sizes":[],"default_left":[0,0,0,0,0,0,0,0,0,0,0,0,0,0,0,0,0,0,0,0,0,0,0],"id":11,"left_children":[1,3,5,-1,7,9,11,13,-1,15,17,19,21,-1,-1,-1,-1,-1,-1,-1,-1,-1,-1],"loss_changes":[3.2016E1,1.1044888E1,2.835794E1,0E0,2.213131E0,2.4217958E1,3.143885E1,2.5448418E0,0E0,2.3242298E1,1.2692837E1,3.661083E1,2.459631E1,0E0,0E0,0E0,0E0,0E0,0E0,0E0,0E0,0E0,0E0],"parents":[2147483647,0,0,1,1,2,2,4,4,5,5,6,6,7,7,9,9,10,10,11,11,12,12],"right_children":[2,4,6,-1,8,10,12,14,-1,16,18,20,22,-1,-1,-1,-1,-1,-1,-1,-1,-1,-1],"split_conditions":[-1E1,8.732E0,4.6984844E5,-1.873369E-2,7.867E1,7.261E1,1.853045E9,-6.598E0,1.11423135E-2,7.648E1,1.2278349E9,7.62E1,8E1,1.6298292E-2,1.4612785E-1,-3.4997903E-2,1.1105452E-2,6.491107E-3,-1.3237321E-1,4.430387E-2,-5.973163E-3,-6.5132074E-2,4.6758755E-4],"split_indices":[19,0,26,0,10,34,38,1,0,18,38,10,36,0,0,0,0,0,0,0,0,0,0],"split_type":[0,0,0,0,0,0,0,0,0,0,0,0,0,0,0,0,0,0,0,0,0,0,0],"sum_hessian":[1.9697367E3,5.012293E1,1.9196138E3,7.254807E0,4.2868122E1,6.684605E2,1.2511533E3,3.645773E1,6.4103913E0,6.2194183E2,4.651868E1,8.4522906E2,4.0592426E2,6.4041524E0,3.005358E1,3.3726718E2,2.8467465E2,9.13595E0,3.738273E1,4.9682748E2,3.4840155E2,1.0904783E2,2.9687643E2],"tree_param":{"num_deleted":"0","num_feature":"39","num_nodes":"23","size_leaf_vector":"1"}},{"base_weights":[2.6001097E-3,-3.5223827E-2,4.650758E-1,-3.8773364E-1,2.0000087E-2,5.8148485E-1,-2.9236403E-1,-4.5355088E-1,7.524072E-2,-2.0740095E-3,6.934955E-1,9.050742E-1,2.2709435E-1,-1.2539116E-1,2.5696691E-2,-5.9971213E-2,7.172679E-2,9.609135E-3,-2.0337172E-2,-2.4215003E-2,1.03127636E-1,3.2383792E-2,1.2010556E-1,-2.1123983E-2,6.437755E-2],"categories":[],"categories_nodes":[],"categories_segments":[],"categories_sizes":[],"default_left":[0,0,0,0,0,0,0,0,0,0,0,0,0,0,0,0,0,0,0,0,0,0,0,0,0],"id":12,"left_children":[1,3,5,7,9,11,13,15,-1,17,19,21,23,-1,-1,-1,-1,-1,-1,-1,-1,-1,-1,-1,-1],"loss_changes":[3.475508E1,3.5608646E1,1.4069595E1,1.692323E1,2.4135729E1,1.3112473E1,9.289519E0,1.1908722E1,0E0,2.0859259E1,8.980101E0,1.5676765E0,9.283779E0,0E0,0E0,0E0,0E0,0E0,0E0,0E0,0E0,0E0,0E0,0E0,0E0],"parents":[2147483647,0,0,1,1,2,2,3,3,4,4,5,5,6,6,7,7,9,9,10,10,11,11,12,12],"right_children":[2,4,6,8,10,12,14,16,-1,18,20,22,24,-1,-1,-1,-1,-1,-1,-1,-1,-1,-1,-1,-1],"split_conditions":[8.395E1,2.281958E5,9.094E1,4.53E-2,5.52E-2,4.066E-1,3.757E-1,1.9E-2,7.524072E-2,1.853045E9,2.13E-2,7.478E1,3.07E-1,-1.2539116E-1,2.5696691E-2,-5.9971213E-2,7.172679E-2,9.609135E-3,-2.0337172E-2,-2.4215003E-2,1.03127636E-1,3.2383792E-2,1.2010556E-1,-2.1123983E-2,6.437755E-2],"split_indices":[25,26,25,21,22,33,9,32,0,38,14,24,7,0,0,0,0,0,0,0,0,0,0,0,0],"split_type":[0,0,0,0,0,0,0,0,0,0,0,0,0,0,0,0,0,0,0,0,0,0,0,0,0],"sum_hessian":[1.9466094E3,1.7984614E3,1.4814789E2,2.4531392E2,1.5531476E3,1.30538E2,1.7609894E1,2.3289565E2,1.2418279E1,1.5039495E3,4.91981E1,6.424165E1,6.629634E1,7.275306E0,1.0334587E1,2.2559494E2,7.300703E0,1.00380676E3,5.0014267E2,6.2271543E0,4.2970947E1,1.151826E1,5.2723396E1,2.7155321E1,3.914102E1],"tree_param":{"num_deleted":"0","num_feature":"39","num_nodes":"25","size_leaf_vector":"1"}},{"base_weights":[1.0878559E-2,-3.032025E-1,6.755399E-2,6.9655967E-3,-6.137267E-1,-8.086239E-2,1.845416E-1,6.2253433E-1,-1.3268231E-1,-2.2656615E-1,-8.7281895E-1,7.327955E-3,-4.4581622E-1,7.200405E-1,1.3370746E-1,-0E0,9.7525164E-2,-6.9948405E-2,2.5258293E-2,-9.030489E-2,2.736505E-2,-1.1797187E-1,-1.7983634E-3,-8.241187E-3,5.5745695E-2,-8.31079E-2,5.4582447E-2,1.1237304E-1,-6.2062517E-2,1.3005221E-1,1.2423633E-2],"categories":[],"categories_nodes":[],"categories_segments":[],"categories_sizes":[],"default_left":[0,0,0,0,0,0,0,0,0,0,0,0,0,0,0,0,0,0,0,0,0,0,0,0,0,0,0,0,0,0,0],"id":13,"left_children":[1,3,5,7,9,11,13,15,17,19,21,23,25,27,29,-1,-1,-1,-1,-1,-1,-1,-1,-1,-1,-1,-1,-1,-1,-1,-1],"loss_changes":[3.4375347E1,2.9233519E1,2.8935528E1,1.3546164E1,1.2935307E1,2.401252E1,2.3911425E1,3.9429722E0,1.9321615E1,1.6736515E1,6.6629333E0,2.0918524E1,3.3143177E1,2.250439E1,2.2595242E1,0E0,0E0,0E0,0E0,0E0,0E0,0E0,0E0,0E0,0E0,0E0,0E0,0E0,0E0,0E0,0E0],"parents":[2147483647,0,0,1,1,2,2,3,3,4,4,5,5,6,6,7,7,8,8,9,9,10,10,11,11,12,12,13,13,14,14],"right_children":[2,4,6,8,10,12,14,16,18,20,22,24,26,28,30,-1,-1,-1,-1,-1,-1,-1,-1,-1,-1,-1,-1,-1,-1,-1,-1],"split_conditions":[2.63E-2,3.571E-1,7.511E1,-4.7375E0,9.383E-1,1.9465754E9,7.548E1,3.35E-2,3.5464E0,2.331E-1,2.01E-2,8.41E-2,3.57109E6,1.53E-1,1.06668243E9,-0E0,9.7525164E-2,-6.9948405E-2,2.5258293E-2,-9.030489E-2,2.736505E-2,-1.1797187E-1,-1.7983634E-3,-8.241187E-3,5.5745695E-2,-8.31079E-2,5.4582447E-2,1.1237304E-1,-6.2062517E-2,1.3005221E-1,1.2423633E-2],"split_indices":[29,20,24,1,1,38,24,6,1,7,30,14,26,3,38,0,0,0,0,0,0,0,0,0,0,0,0,0,0,0,0],"split_type":[0,0,0,0,0,0,0,0,0,0,0,0,0,0,0,0,0,0,0,0,0,0,0,0,0,0,0,0,0,0,0],"sum_hessian":[1.9455575E3,2.919651E2,1.6535925E3,1.4482521E2,1.4713986E2,7.237014E2,9.2989105E2,2.7261477E1,1.1756374E2,6.295102E1,8.418884E1,5.814261E2,1.422753E2,7.5545166E1,8.543459E2,6.2152658E0,2.104621E1,5.201189E1,6.555185E1,2.9989555E1,3.2961464E1,7.282766E1,1.1361185E1,4.974636E2,8.396251E1,1.1338326E2,2.8892038E1,6.578612E1,9.759053E0,2.2420488E1,8.319254E2],"tree_param":{"num_deleted":"0","num_feature":"39","num_nodes":"31","size_leaf_vector":"1"}},{"base_weights":[3.6209147E-2,-9.6902885E-2,1.3406159E-1,-1.5611543E-1,4.07427E-1,2.34824E-1,-7.728654E-2,-3.2959548E-1,1.8238692E-2,8.740661E-1,8.602688E-2,2.8839713E-1,-3.0374676E-1,5.9399474E-1,-2.1150406E-1,4.2443953E-2,-4.9817808E-2,-1.147124E-1,1.1655246E-2,9.555568E-3,1.1964413E-1,-5.0345466E-2,7.586592E-2,-1.4883627E-2,4.103721E-2,-0E0,-1.4486603E-1,-1.7905958E-2,9.8109655E-2,6.505273E-3,-6.7697376E-2],"categories":[],"categories_nodes":[],"categories_segments":[],"categories_sizes":[],"default_left":[0,0,0,0,0,0,0,0,0,0,0,0,0,0,0,0,0,0,0,0,0,0,0,0,0,0,0,0,0,0,0],"id":14,"left_children":[1,3,5,7,9,11,13,15,17,19,21,23,25,27,29,-1,-1,-1,-1,-1,-1,-1,-1,-1,-1,-1,-1,-1,-1,-1,-1],"loss_changes":[2.5494394E1,2.4310545E1,2.4369688E1,2.2833307E1,1.1081262E1,2.2436665E1,3.237521E1,2.2297058E1,2.711927E1,1.3970509E0,1.5899144E1,1.5960976E1,1.790073E1,1.1067905E1,2.9416164E1,0E0,0E0,0E0,0E0,0E0,0E0,0E0,0E0,0E0,0E0,0E0,0E0,0E0,0E0,0E0,0E0],"parents":[2147483647,0,0,1,1,2,2,3,3,4,4,5,5,6,6,7,7,8,8,9,9,10,10,11,11,12,12,13,13,14,14],"right_children":[2,4,6,8,10,12,14,16,18,20,22,24,26,28,30,-1,-1,-1,-1,-1,-1,-1,-1,-1,-1,-1,-1,-1,-1,-1,-1],"split_conditions":[9.3E-3,1.93749E1,1.853045E9,7.618E1,-1.6E-1,8.262E1,6.867E1,-8.8763E0,6.944E1,1.7072699E9,6.7E-1,4.11E-2,9.668E-1,6.639E1,7.485E1,4.2443953E-2,-4.9817808E-2,-1.147124E-1,1.1655246E-2,9.555568E-3,1.1964413E-1,-5.0345466E-2,7.586592E-2,-1.4883627E-2,4.103721E-2,-0E0,-1.4486603E-1,-1.7905958E-2,9.8109655E-2,6.505273E-3,-6.7697376E-2],"split_indices":[22,1,38,18,37,10,25,19,10,38,37,13,33,34,35,0,0,0,0,0,0,0,0,0,0,0,0,0,0,0,0],"split_type":[0,0,0,0,0,0,0,0,0,0,0,0,0,0,0,0,0,0,0,0,0,0,0,0,0,0,0,0,0,0,0],"sum_hessian":[1.9486035E3,8.192571E2,1.1293464E3,7.371649E2,8.209214E1,7.6924835E2,3.6009805E2,3.7268994E2,3.64475E2,3.0040445E1,5.2051697E1,7.030729E2,6.617549E1,5.6897255E1,3.032008E2,3.872183E1,3.339681E2,2.4027996E1,3.40447E2,6.106031E0,2.3934414E1,2.5914976E1,2.613672E1,7.7198296E1,6.258746E2,5.181419E1,1.4361302E1,1.18098545E1,4.50874E1,1.71607E2,1.3159381E2],"tree_param":{"num_deleted":"0","num_feature":"39","num_nodes":"31","size_leaf_vector":"1"}},{"base_weights":[-4.2123054E-3,-1.7932643E-1,8.663347E-2,-2.6730704E-1,1.9611916E-1,-3.267039E-1,1.2625359E-1,-3.766618E-1,8.363369E-2,4.7697166E-1,-2.5967482E-1,-0E0,-6.991132E-1,1.4464752E-2,2.9448846E-1,-7.5286716E-2,-2.303004E-2,4.3021783E-2,-3.6226206E-2,8.547201E-3,1.0073045E-1,-1.316587E-1,-0E0,-5.054538E-2,3.464113E-2,-0E0,-1.12519704E-1,-1.677896E-2,2.144463E-2,-6.0270555E-2,4.0361375E-2],"categories":[],"categories_nodes":[],"categories_segments":[],"categories_sizes":[],"default_left":[0,0,0,0,0,0,0,0,0,0,0,0,0,0,0,0,0,0,0,0,0,0,0,0,0,0,0,0,0,0,0],"id":15,"left_children":[1,3,5,7,9,11,13,15,17,19,21,23,25,27,29,-1,-1,-1,-1,-1,-1,-1,-1,-1,-1,-1,-1,-1,-1,-1,-1],"loss_changes":[3.0791286E1,2.214593E1,2.0491114E1,2.129161E1,1.6491856E1,1.4129303E1,2.131312E1,1.7822266E1,1.3818517E1,1.0234089E1,9.34531E0,7.098239E0,9.612978E0,1.7918112E1,1.5326698E1,0E0,0E0,0E0,0E0,0E0,0E0,0E0,0E0,0E0,0E0,0E0,0E0,0E0,0E0,0E0,0E0],"parents":[2147483647,0,0,1,1,2,2,3,3,4,4,5,5,6,6,7,7,8,8,9,9,10,10,11,11,12,12,13,13,14,14],"right_children":[2,4,6,8,10,12,14,16,18,20,22,24,26,28,30,-1,-1,-1,-1,-1,-1,-1,-1,-1,-1,-1,-1,-1,-1,-1,-1],"split_conditions":[3.33E-2,9.9941E0,2E-2,7.907E1,8.7E1,1.0676E1,5.915E1,7.439E1,7.498E1,7.496E1,4.3145103E5,6.142E0,5.5E-3,1.4296E1,6.488E1,-7.5286716E-2,-2.303004E-2,4.3021783E-2,-3.6226206E-2,8.547201E-3,1.0073045E-1,-1.316587E-1,-0E0,-5.054538E-2,3.464113E-2,-0E0,-1.12519704E-1,-1.677896E-2,2.144463E-2,-6.0270555E-2,4.0361375E-2],"split_indices":[6,11,14,35,36,0,12,24,10,24,26,0,14,0,25,0,0,0,0,0,0,0,0,0,0,0,0,0,0,0,0],"split_type":[0,0,0,0,0,0,0,0,0,0,0,0,0,0,0,0,0,0,0,0,0,0,0,0,0,0,0,0,0,0,0],"sum_hessian":[1.92256E3,6.614319E2,1.2611282E3,5.3953644E2,1.2189546E2,1.0565392E2,1.1554742E3,4.143979E2,1.2513854E2,7.733654E1,4.4558918E1,5.5444588E1,5.0209335E1,7.008825E2,4.5459167E2,1.7028526E2,2.4411263E2,7.535968E1,4.9778866E1,3.9649364E1,3.768718E1,8.127395E0,3.6431522E1,2.0109978E1,3.533461E1,1.2340653E1,3.7868683E1,3.5697046E2,3.4391205E2,1.9644722E1,4.3494696E2],"tree_param":{"num_deleted":"0","num_feature":"39","num_nodes":"31","size_leaf_vector":"1"}},{"base_weights":[-2.6074206E-2,-8.2856E-2,2.2370638E-1,-1.4510232E-1,1.9582511E-1,-7.138323E-2,3.4977657E-1,5.751882E-1,-1.767958E-1,3.4863287E-1,-4.8088273E-1,7.1279414E-2,-9.561317E-1,-9.617056E-2,3.9649388E-1,-2.9713495E-2,9.5808335E-2,-3.3651114E-2,-0E0,-6.0967E-3,6.718309E-2,4.887616E-2,-1.1322111E-1,-3.501483E-2,4.9508054E-2,-1.6226181E-1,-7.515992E-3,1.3135305E-2,7.068772E-2],"categories":[],"categories_nodes":[],"categories_segments":[],"categories_sizes":[],"default_left":[0,0,0,0,0,0,0,0,0,0,0,0,0,0,0,0,0,0,0,0,0,0,0,0,0,0,0,0,0],"id":16,"left_children":[1,3,5,7,9,11,13,15,17,19,21,23,25,-1,27,-1,-1,-1,-1,-1,-1,-1,-1,-1,-1,-1,-1,-1,-1],"loss_changes":[2.6342422E1,2.6515697E1,1.31859E1,2.8310787E1,2.8713919E1,1.4167525E1,1.3220877E1,1.0697144E1,2.2141682E1,2.0033714E1,2.2183397E1,1.1281516E1,3.2493067E0,0E0,1.190641E1,0E0,0E0,0E0,0E0,0E0,0E0,0E0,0E0,0E0,0E0,0E0,0E0,0E0,0E0],"parents":[2147483647,0,0,1,1,2,2,3,3,4,4,5,5,6,6,7,7,8,8,9,9,10,10,11,11,12,12,14,14],"right_children":[2,4,6,8,10,12,14,16,18,20,22,24,26,-1,28,-1,-1,-1,-1,-1,-1,-1,-1,-1,-1,-1,-1,-1,-1],"split_conditions":[9.9379E0,2.68E-2,2.7E-2,-1E1,7.148E1,2.7958E1,5.6E-3,2.88E-2,6.552E-1,4.44E-2,1.5146611E9,7.322E1,7.821E1,-9.617056E-2,3.593E-1,-2.9713495E-2,9.5808335E-2,-3.3651114E-2,-0E0,-6.0967E-3,6.718309E-2,4.887616E-2,-1.1322111E-1,-3.501483E-2,4.9508054E-2,-1.6226181E-1,-7.515992E-3,1.3135305E-2,7.068772E-2],"split_indices":[19,22,14,19,34,0,15,6,7,14,38,25,18,0,9,0,0,0,0,0,0,0,0,0,0,0,0,0,0],"split_type":[0,0,0,0,0,0,0,0,0,0,0,0,0,0,0,0,0,0,0,0,0,0,0,0,0,0,0,0,0],"sum_hessian":[1.8665796E3,1.5268418E3,3.3973782E2,1.2532382E3,2.7360364E2,9.852863E1,2.4120918E2,4.9241566E1,1.2039966E3,2.2585706E2,4.774658E1,8.522266E1,1.3305977E1,6.763399E0,2.3444577E2,9.049504E0,4.0192062E1,7.59326E2,4.4467056E2,7.62801E1,1.4957697E2,1.5358299E1,3.238828E1,3.937812E1,4.5844536E1,7.285971E0,6.020005E0,9.853074E1,1.3591504E2],"tree_param":{"num_deleted":"0","num_feature":"39","num_nodes":"29","size_leaf_vector":"1"}},{"base_weights":[1.9916419E-2,-4.1663548E-1,5.7448056E-2,-8.274673E-1,-7.7728243E-3,7.306711E-4,4.1295624E-1,-1.0946404E0,-0E0,-2.5521892E-1,4.7679514E-1,-3.3636376E-1,5.938046E-2,8.7608624E-1,1.4576857E-1,-9.011206E-3,-1.5782852E-1,-5.1476177E-2,6.17985E-2,-9.482769E-2,1.5763184E-2,1.17510185E-1,-1.2554481E-2,-1.1401601E-2,-8.678009E-2,-2.1786716E-2,1.7043673E-2,-0E0,1.1281732E-1,-1.7914914E-2,5.8322556E-2],"categories":[],"categories_nodes":[],"categories_segments":[],"categories_sizes":[],"default_left":[0,0,0,0,0,0,0,0,0,0,0,0,0,0,0,0,0,0,0,0,0,0,0,0,0,0,0,0,0,0,0],"id":17,"left_children":[1,3,5,7,9,11,13,15,17,19,21,23,25,27,29,-1,-1,-1,-1,-1,-1,-1,-1,-1,-1,-1,-1,-1,-1,-1,-1],"loss_changes":[3.060234E1,2.3515121E1,3.4709454E1,1.5566517E1,9.294537E0,2.9617378E1,2.7599613E1,9.8574295E0,4.8931236E0,1.2572212E1,8.844032E0,1.9304886E1,2.580664E1,4.0686035E0,1.6233109E1,0E0,0E0,0E0,0E0,0E0,0E0,0E0,0E0,0E0,0E0,0E0,0E0,0E0,0E0,0E0,0E0],"parents":[2147483647,0,0,1,1,2,2,3,3,4,4,5,5,6,6,7,7,8,8,9,9,10,10,11,11,12,12,13,13,14,14],"right_children":[2,4,6,8,10,12,14,16,18,20,22,24,26,28,30,-1,-1,-1,-1,-1,-1,-1,-1,-1,-1,-1,-1,-1,-1,-1,-1],"split_conditions":[-1.39E0,5.885E-1,8.051E1,1.855E1,1.92E-2,1.3291379E9,6.46E-2,6.269E1,6.962E1,5.522E1,3.235E-1,1.8E-1,4.5E-3,1.72E-2,1.53E-2,-9.011206E-3,-1.5782852E-1,-5.1476177E-2,6.17985E-2,-9.482769E-2,1.5763184E-2,1.17510185E-1,-1.2554481E-2,-1.1401601E-2,-8.678009E-2,-2.1786716E-2,1.7043673E-2,-0E0,1.1281732E-1,-1.7914914E-2,5.8322556E-2],"split_indices":[37,7,35,5,32,38,3,34,34,12,13,37,22,14,30,0,0,0,0,0,0,0,0,0,0,0,0,0,0,0,0],"split_type":[0,0,0,0,0,0,0,0,0,0,0,0,0,0,0,0,0,0,0,0,0,0,0,0,0,0,0,0,0,0,0],"sum_hessian":[1.8941555E3,1.4506482E2,1.7490907E3,6.942114E1,7.5643684E1,1.5139336E3,2.351571E2,5.168853E1,1.7732615E1,5.2776203E1,2.286748E1,2.1909056E2,1.294843E3,8.2145386E1,1.5301172E2,1.089345E1,4.079508E1,1.0153945E1,7.578669E0,2.2733969E1,3.0042234E1,1.2784878E1,1.00826025E1,1.3892813E2,8.016242E1,3.2543588E2,9.6940717E2,6.4493227E0,7.569607E1,8.031956E1,7.269216E1],"tree_param":{"num_deleted":"0","num_feature":"39","num_nodes":"31","size_leaf_vector":"1"}},{"base_weights":[2.2558257E-2,-7.1912505E-2,1.5990004E-1,-1.774791E-1,8.042591E-2,2.100698E-1,-5.999244E-1,-2.5004992E-1,3.4308523E-1,2.9095507E-1,-5.3124625E-2,-3.427148E-1,2.629563E-1,-8.7767464E-1,9.503858E-2,-1.7788932E-2,-7.442883E-2,-6.08609E-2,6.5359436E-2,4.2761218E-2,-8.262127E-2,-4.5737375E-2,1.4150705E-2,7.966441E-2,-8.042577E-2,4.0299885E-2,-2.4446072E-2,-1.3010581E-1,-0E0],"categories":[],"categories_nodes":[],"categories_segments":[],"categories_sizes":[],"default_left":[0,0,0,0,0,0,0,0,0,0,0,0,0,0,0,0,0,0,0,0,0,0,0,0,0,0,0,0,0],"id":18,"left_children":[1,3,5,7,9,11,13,15,17,19,21,23,25,27,-1,-1,-1,-1,-1,-1,-1,-1,-1,-1,-1,-1,-1,-1,-1],"loss_changes":[2.511856E1,1.8430244E1,2.987422E1,2.5630804E1,1.3331559E1,2.188504E1,2.0171377E1,2.1201843E1,1.460023E1,1.1787418E1,1.6155745E1,2.1988224E1,2.3571617E1,8.623226E0,0E0,0E0,0E0,0E0,0E0,0E0,0E0,0E0,0E0,0E0,0E0,0E0,0E0,0E0,0E0],"parents":[2147483647,0,0,1,1,2,2,3,3,4,4,5,5,6,6,7,7,8,8,9,9,10,10,11,11,12,12,13,13],"right_children":[2,4,6,8,10,12,14,16,18,20,22,24,26,28,-1,-1,-1,-1,-1,-1,-1,-1,-1,-1,-1,-1,-1,-1,-1],"split_conditions":[7.632E1,5.23E-2,8.19E1,1.00078E1,1.16E-2,-1.33E0,3.94E-2,7.8E-1,-2.1847E0,2.349E1,7.159E1,2.3E-2,1.26E0,8.107E1,9.503858E-2,-1.7788932E-2,-7.442883E-2,-6.08609E-2,6.5359436E-2,4.2761218E-2,-8.262127E-2,-4.5737375E-2,1.4150705E-2,7.966441E-2,-8.042577E-2,4.0299885E-2,-2.4446072E-2,-1.3010581E-1,-0E0],"split_indices":[25,6,10,11,21,37,22,13,19,27,25,8,37,24,0,0,0,0,0,0,0,0,0,0,0,0,0,0,0],"split_type":[0,0,0,0,0,0,0,0,0,0,0,0,0,0,0,0,0,0,0,0,0,0,0,0,0,0,0,0,0],"sum_hessian":[1.9217855E3,1.1329469E3,7.888386E2,6.7463916E2,4.5830768E2,7.433185E2,4.552017E1,5.9558905E2,7.905009E1,1.8108855E2,2.7721915E2,6.141283E1,6.8190564E2,3.951809E1,6.0020785E0,4.7258405E2,1.2300502E2,1.3093596E1,6.595649E1,1.7252339E2,8.565152E0,9.6992714E1,1.8022644E2,1.340461E1,4.800822E1,5.931814E2,8.8724236E1,3.247636E1,7.041732E0],"tree_param":{"num_deleted":"0","num_feature":"39","num_nodes":"29","size_leaf_vector":"1"}},{"base_weights":[1.5192325E-2,1.2536532E-1,1.6550618E-3,6.3754994E-1,-1.51986005E-2,8.564446E-1,-1.5894199E-2,-1.5792447E-1,8.39591E-2,1.2278122E-1,-0E0,-4.0133554E-2,1.0487053E-3,2.3641808E-2,-2.0768903E-2],"categories":[],"categories_nodes":[],"categories_segments":[],"categories_sizes":[],"default_left":[0,0,0,0,0,0,0,0,0,0,0,0,0,0,0],"id":19,"left_children":[1,-1,3,5,7,9,-1,11,13,-1,-1,-1,-1,-1,-1],"loss_changes":[2.4818428E1,0E0,2.0974548E1,9.8375435E0,2.5924168E1,5.8689346E0,0E0,2.264021E1,3.1193554E1,0E0,0E0,0E0,0E0,0E0,0E0],"parents":[2147483647,0,0,2,2,3,3,4,4,5,5,7,7,8,8],"right_children":[2,-1,4,6,8,10,-1,12,14,-1,-1,-1,-1,-1,-1],"split_conditions":[1.06668243E9,1.2536532E-1,-1E1,1E0,9.3E-3,7.049E1,-1.5894199E-2,1.7386015E9,1.8605745E9,1.2278122E-1,-0E0,-4.0133554E-2,1.0487053E-3,2.3641808E-2,-2.0768903E-2],"split_indices":[38,0,19,16,22,34,0,38,38,0,0,0,0,0,0],"split_type":[0,0,0,0,0,0,0,0,0,0,0,0,0,0,0],"sum_hessian":[1.8889734E3,2.088526E1,1.8680881E3,4.8311855E1,1.8197764E3,3.8894012E1,9.417845E0,7.514776E2,1.0682987E3,3.2204235E1,6.6897755E0,3.6821945E2,3.8325818E2,7.463532E2,3.2194547E2],"tree_param":{"num_deleted":"0","num_feature":"39","num_nodes":"15","size_leaf_vector":"1"}},{"base_weights":[-3.0053833E-2,-8.746997E-2,1.9611165E-1,-1.371076E-1,2.2269166E-1,-3.4072274E-1,2.7724168E-1,-2.047486E-1,1.1587953E-1,5.843194E-1,-1.0710391E-1,-1.3905095E-1,2.7394974E-1,-1.0205879E-1,3.1181562E-1,-2.9008552E-2,5.9456166E-2,2.81735E-2,-2.406325E-2,9.3820654E-2,-8.579333E-4,-4.4225145E-2,6.592565E-2,-4.6084743E-2,1.0134155E-1,4.4014398E-2,-2.9579917E-2],"categories":[],"categories_nodes":[],"categories_segments":[],"categories_sizes":[],"default_left":[0,0,0,0,0,0,0,0,0,0,0,0,0,0,0,0,0,0,0,0,0,0,0,0,0,0,0],"id":20,"left_children":[1,3,5,7,9,11,13,15,17,19,21,-1,23,-1,25,-1,-1,-1,-1,-1,-1,-1,-1,-1,-1,-1,-1],"loss_changes":[2.4051416E1,2.2902714E1,1.6341923E1,2.227448E1,2.4993162E1,2.5906239E1,1.2567415E1,2.6350464E1,1.0275698E1,1.2698448E1,1.8327429E1,0E0,1.1894423E1,0E0,1.0184841E1,0E0,0E0,0E0,0E0,0E0,0E0,0E0,0E0,0E0,0E0,0E0,0E0],"parents":[2147483647,0,0,1,1,2,2,3,3,4,4,5,5,6,6,7,7,8,8,9,9,10,10,12,12,14,14],"right_children":[2,4,6,8,10,12,14,16,18,20,22,-1,24,-1,26,-1,-1,-1,-1,-1,-1,-1,-1,-1,-1,-1,-1],"split_conditions":[2.059E1,8.108E1,-1.39E0,5.7605E0,8.252E1,1.4E-2,2.67E-2,1.079E-1,1.12E2,8.097E1,1.625E-1,-1.3905095E-1,3.442E-1,-1.0205879E-1,2.245E1,-2.9008552E-2,5.9456166E-2,2.81735E-2,-2.406325E-2,9.3820654E-2,-8.579333E-4,-4.4225145E-2,6.592565E-2,-4.6084743E-2,1.0134155E-1,4.4014398E-2,-2.9579917E-2],"split_indices":[27,18,37,19,18,22,29,14,36,10,3,0,9,0,5,0,0,0,0,0,0,0,0,0,0,0,0],"split_type":[0,0,0,0,0,0,0,0,0,0,0,0,0,0,0,0,0,0,0,0,0,0,0,0,0,0,0],"sum_hessian":[1.8591084E3,1.4889507E3,3.701577E2,1.2886802E3,2.0027051E2,4.528405E1,3.2487366E2,1.02170496E3,2.6697528E2,9.680003E1,1.0347047E2,1.9591888E1,2.5692162E1,6.819986E0,3.1805368E2,9.739371E2,4.7767857E1,1.9785745E2,6.911783E1,7.389654E1,2.2903502E1,7.6305725E1,2.7164738E1,1.1086161E1,1.4606001E1,2.926938E2,2.535988E1],"tree_param":{"num_deleted":"0","num_feature":"39","num_nodes":"27","size_leaf_vector":"1"}},{"base_weights":[-2.121636E-2,-3.9420336E-1,1.854104E-2,-9.515562E-1,-1.8029717E-1,2.524636E-1,-6.374761E-2,-1.1297249E0,3.3359854E-3,-4.1434753E-1,5.125698E-1,-3.5902596E-1,3.5948777E-1,-1.6189133E-1,-4.207785E-2,-1.5518253E-1,-0E0,2.2483112E-2,-7.014702E-2,-4.1229274E-2,1.1324267E-1,-1.18973725E-1,-5.1009064E-3,1.885708E-2,7.835365E-2,-2.8841479E-2,3.7974478E-3],"categories":[],"categories_nodes":[],"categories_segments":[],"categories_sizes":[],"default_left":[0,0,0,0,0,0,0,0,0,0,0,0,0,0,0,0,0,0,0,0,0,0,0,0,0,0,0],"id":21,"left_children":[1,3,5,7,9,11,13,15,-1,17,19,21,23,-1,25,-1,-1,-1,-1,-1,-1,-1,-1,-1,-1,-1,-1],"loss_changes":[2.8496426E1,2.0024878E1,3.3050697E1,1.0212273E1,2.2787048E1,2.959089E1,3.2795895E1,6.7558365E0,0E0,1.1699177E1,1.42920265E1,1.1558632E1,2.1385193E1,0E0,1.8406475E1,0E0,0E0,0E0,0E0,0E0,0E0,0E0,0E0,0E0,0E0,0E0,0E0],"parents":[2147483647,0,0,1,1,2,2,3,3,4,4,5,5,6,6,7,7,9,9,10,10,11,11,12,12,14,14],"right_children":[2,4,6,8,10,12,14,16,-1,18,20,22,24,-1,26,-1,-1,-1,-1,-1,-1,-1,-1,-1,-1,-1,-1],"split_conditions":[-9.3E-1,1.01E1,-1.6E-1,5.73E-2,1E0,4E1,-1.4E-1,7.83E-2,3.3359854E-3,2.84E-2,1.8605745E9,-3.4624E0,7.591E1,-1.6189133E-1,3.06E-2,-1.5518253E-1,-0E0,2.2483112E-2,-7.014702E-2,-4.1229274E-2,1.1324267E-1,-1.18973725E-1,-5.1009064E-3,1.885708E-2,7.835365E-2,-2.8841479E-2,3.7974478E-3],"split_indices":[37,5,37,6,23,36,37,14,0,9,38,1,25,0,14,0,0,0,0,0,0,0,0,0,0,0,0],"split_type":[0,0,0,0,0,0,0,0,0,0,0,0,0,0,0,0,0,0,0,0,0,0,0,0,0,0,0],"sum_hessian":[1.8813375E3,1.8280574E2,1.6985317E3,4.6641327E1,1.3616441E2,4.4540665E2,1.2531251E3,4.0427624E1,6.213701E0,1.0403701E2,3.2127396E1,6.3519318E1,3.8188733E2,1.7365618E1,1.2357595E3,3.438371E1,6.043916E0,2.0978569E1,8.305845E1,9.775377E0,2.235202E1,1.804628E1,4.5473038E1,2.309314E2,1.5095595E2,3.3900067E2,8.9675885E2],"tree_param":{"num_deleted":"0","num_feature":"39","num_nodes":"27","size_leaf_vector":"1"}},{"base_weights":[1.1550178E-2,-1.24063745E-1,9.976158E-2,-4.979188E-1,-2.96161E-2,-2.7435824E-1,1.4811361E-1,-6.750167E-1,1.9281425E-1,-1.4350072E-1,3.1156367E-1,-7.990819E-1,6.6762276E-2,2.03436E-1,-2.9068294E-1,-9.929174E-2,-7.5586117E-3,6.391459E-2,-4.432984E-2,-2.292285E-3,-6.52392E-2,5.701581E-2,-8.513226E-2,-1.2989545E-1,-0E0,6.0987525E-2,-5.8718625E-2,3.9540716E-2,6.9907084E-3,-7.2845735E-2,3.647013E-2],"categories":[],"categories_nodes":[],"categories_segments":[],"categories_sizes":[],"default_left":[0,0,0,0,0,0,0,0,0,0,0,0,0,0,0,0,0,0,0,0,0,0,0,0,0,0,0,0,0,0,0],"id":22,"left_children":[1,3,5,7,9,11,13,15,17,19,21,23,25,27,29,-1,-1,-1,-1,-1,-1,-1,-1,-1,-1,-1,-1,-1,-1,-1,-1],"loss_changes":[2.2227081E1,2.4867476E1,2.0419876E1,1.8535786E1,2.2621683E1,2.3942612E1,2.4502054E1,9.410007E0,6.284191E0,2.1249596E1,2.4460945E1,1.3021973E1,1.9588629E1,1.5856789E1,2.1713139E1,0E0,0E0,0E0,0E0,0E0,0E0,0E0,0E0,0E0,0E0,0E0,0E0,0E0,0E0,0E0,0E0],"parents":[2147483647,0,0,1,1,2,2,3,3,4,4,5,5,6,6,7,7,8,8,9,9,10,10,11,11,12,12,13,13,14,14],"right_children":[2,4,6,8,10,12,14,16,18,20,22,24,26,28,30,-1,-1,-1,-1,-1,-1,-1,-1,-1,-1,-1,-1,-1,-1,-1,-1],"split_conditions":[8E1,7.105E1,6.882E1,2.101E1,3.1128E1,4.33E-2,8.169E1,6.7E-2,1.46E-2,6E-2,8.832E1,6.845E1,1.01E2,8.591E-1,6.7E1,-9.929174E-2,-7.5586117E-3,6.391459E-2,-4.432984E-2,-2.292285E-3,-6.52392E-2,5.701581E-2,-8.513226E-2,-1.2989545E-1,-0E0,6.0987525E-2,-5.8718625E-2,3.9540716E-2,6.9907084E-3,-7.2845735E-2,3.647013E-2],"split_indices":[36,25,10,27,0,29,10,8,32,37,12,34,36,4,34,0,0,0,0,0,0,0,0,0,0,0,0,0,0,0,0],"split_type":[0,0,0,0,0,0,0,0,0,0,0,0,0,0,0,0,0,0,0,0,0,0,0,0,0,0,0,0,0,0,0],"sum_hessian":[1.8563834E3,7.247367E2,1.1316467E3,1.4109789E2,5.836388E2,1.248523E2,1.0067945E3,1.1402577E2,2.7072115E1,4.4176688E2,1.4187193E2,4.9674026E1,7.5178276E1,8.981036E2,1.086909E2,8.878263E1,2.5243141E1,1.8568012E1,8.504104E0,3.415499E2,1.00216995E2,1.2457255E2,1.7299377E1,3.7181545E1,1.249248E1,4.348139E1,3.1696882E1,4.740236E2,4.2408002E2,7.252817E1,3.6162735E1],"tree_param":{"num_deleted":"0","num_feature":"39","num_nodes":"31","size_leaf_vector":"1"}},{"base_weights":[-1.5394422E-2,-1.2406684E-1,9.625228E-2,-4.5496803E-3,-2.7113006E-1,-1.4763768E-1,1.9792965E-1,-7.989904E-2,5.1688004E-1,-6.337753E-1,-6.7508675E-2,-6.6343755E-1,2.6495077E-3,-2.4553439E-1,2.5657073E-1,-6.990804E-2,-0E0,9.9176444E-2,-0E0,-1.4064483E-1,-4.0560503E-2,6.030214E-2,-2.3946239E-2,-1.2361085E-1,2.0274898E-2,-1.2548047E-1,8.868589E-3,-5.5298813E-2,2.7865756E-2,3.8311545E-2,-2.2010613E-2],"categories":[],"categories_nodes":[],"categories_segments":[],"categories_sizes":[],"default_left":[0,0,0,0,0,0,0,0,0,0,0,0,0,0,0,0,0,0,0,0,0,0,0,0,0,0,0,0,0,0,0],"id":23,"left_children":[1,3,5,7,9,11,13,15,17,19,21,23,25,27,29,-1,-1,-1,-1,-1,-1,-1,-1,-1,-1,-1,-1,-1,-1,-1,-1],"loss_changes":[2.2998798E1,1.6562954E1,2.3124876E1,2.0685759E1,3.043278E1,2.1882261E1,1.7305761E1,1.9376938E1,1.1042599E1,2.0900146E1,2.0748287E1,2.0877817E1,1.4357973E1,8.308939E0,1.6471561E1,0E0,0E0,0E0,0E0,0E0,0E0,0E0,0E0,0E0,0E0,0E0,0E0,0E0,0E0,0E0,0E0],"parents":[2147483647,0,0,1,1,2,2,3,3,4,4,5,5,6,6,7,7,8,8,9,9,10,10,11,11,12,12,13,13,14,14],"right_children":[2,4,6,8,10,12,14,16,18,20,22,24,26,28,30,-1,-1,-1,-1,-1,-1,-1,-1,-1,-1,-1,-1,-1,-1,-1,-1],"split_conditions":[7.618E1,6E-2,7.7E1,5.72E-2,5.2194347E5,7.284E1,1.91E-2,6.24E0,4.33E-2,1E0,7.2E1,7.27E-2,2.65E-2,2.0228E1,1.57E2,-6.990804E-2,-0E0,9.9176444E-2,-0E0,-1.4064483E-1,-4.0560503E-2,6.030214E-2,-2.3946239E-2,-1.2361085E-1,2.0274898E-2,-1.2548047E-1,8.868589E-3,-5.5298813E-2,2.7865756E-2,3.8311545E-2,-2.2010613E-2],"split_indices":[18,37,36,30,26,24,14,0,8,28,36,6,29,0,36,0,0,0,0,0,0,0,0,0,0,0,0,0,0,0,0],"split_type":[0,0,0,0,0,0,0,0,0,0,0,0,0,0,0,0,0,0,0,0,0,0,0,0,0,0,0,0,0,0,0],"sum_hessian":[1.8877286E3,9.630985E2,9.246301E2,5.380687E2,4.2502975E2,2.675348E2,6.5709534E2,4.7425333E2,6.381541E1,1.4853694E2,2.7649283E2,6.0806206E1,2.0672859E2,7.29939E1,5.8410144E2,6.38406E1,4.1041272E2,3.9778248E1,2.403716E1,4.8587147E1,9.994979E1,4.871743E1,2.2777539E2,4.306869E1,1.7737516E1,9.88079E0,1.968478E2,5.2489372E1,2.0504526E1,5.1481525E2,6.928623E1],"tree_param":{"num_deleted":"0","num_feature":"39","num_nodes":"31","size_leaf_vector":"1"}},{"base_weights":[3.588998E-2,-8.112373E-3,2.8720364E-1,7.175539E-1,-2.3588184E-2,3.7278E-1,-2.4702407E-1,1.1244053E-1,-0E0,-1.9346067E-1,6.3177735E-2,-1.4787832E-1,4.389352E-1,-1.2916194E-1,4.9138926E-2,3.6894497E-3,-5.094513E-2,-3.301476E-5,5.7444207E-2,-8.247561E-2,5.1259357E-2,1.0528193E-2,6.925091E-2,-3.522305E-2,6.577634E-2],"categories":[],"categories_nodes":[],"categories_segments":[],"categories_sizes":[],"default_left":[0,0,0,0,0,0,0,0,0,0,0,0,0,0,0,0,0,0,0,0,0,0,0,0,0],"id":24,"left_children":[1,3,5,7,9,11,13,-1,-1,15,17,19,21,-1,23,-1,-1,-1,-1,-1,-1,-1,-1,-1,-1],"loss_changes":[2.107157E1,1.6849787E1,1.3346781E1,4.9759197E0,2.3183094E1,9.096485E0,1.0979251E1,0E0,0E0,2.8198946E1,2.7773773E1,9.447754E0,9.7031555E0,0E0,5.685163E0,0E0,0E0,0E0,0E0,0E0,0E0,0E0,0E0,0E0,0E0],"parents":[2147483647,0,0,1,1,2,2,3,3,4,4,5,5,6,6,9,9,10,10,11,11,12,12,14,14],"right_children":[2,4,6,8,10,12,14,-1,-1,16,18,20,22,-1,24,-1,-1,-1,-1,-1,-1,-1,-1,-1,-1],"split_conditions":[3.9444E1,1.0850397E9,7.162E-1,8.517E1,1.5419788E9,7.06E1,7.225E1,1.1244053E-1,-0E0,6.668E1,1.579E-1,5.49E-2,8.1E-3,-1.2916194E-1,6.3868E1,3.6894497E-3,-5.094513E-2,-3.301476E-5,5.7444207E-2,-8.247561E-2,5.1259357E-2,1.0528193E-2,6.925091E-2,-3.522305E-2,6.577634E-2],"split_indices":[0,38,31,25,38,18,35,0,0,34,3,14,21,0,0,0,0,0,0,0,0,0,0,0,0],"split_type":[0,0,0,0,0,0,0,0,0,0,0,0,0,0,0,0,0,0,0,0,0,0,0,0,0],"sum_hessian":[1.8659283E3,1.5848315E3,2.8109677E2,2.8977522E1,1.555854E3,2.452294E2,3.5867382E1,2.1741707E1,7.2358155E0,5.307534E2,1.0251006E3,2.4845121E1,2.2038428E2,9.166715E0,2.6700666E1,2.6709207E2,2.6366135E2,8.8816766E2,1.369329E2,1.3901813E1,1.0943308E1,6.617195E1,1.5421233E2,1.4649346E1,1.2051319E1],"tree_param":{"num_deleted":"0","num_feature":"39","num_nodes":"25","size_leaf_vector":"1"}},{"base_weights":[2.410919E-2,-2.2511687E-2,1.9141595E-1,-5.7732746E-2,3.2631168E-1,3.8887903E-1,2.5714941E-2,-5.416489E-1,-2.547272E-2,-1.5332888E-1,5.4173046E-1,-2.880234E-1,5.146835E-1,-9.203725E-2,4.1432294E-1,-9.794401E-2,5.2417137E-2,2.0617594E-3,-4.0477708E-2,4.2200062E-2,-7.6014556E-2,8.321886E-2,-8.361445E-3,3.961241E-2,-9.2255116E-2,1.6938673E-2,9.436781E-2,4.2645175E-2,-3.1060413E-2,-3.682194E-2,8.55507E-2],"categories":[],"categories_nodes":[],"categories_segments":[],"categories_sizes":[],"default_left":[0,0,0,0,0,0,0,0,0,0,0,0,0,0,0,0,0,0,0,0,0,0,0,0,0,0,0,0,0,0,0],"id":25,"left_children":[1,3,5,7,9,11,13,15,17,19,21,23,25,27,29,-1,-1,-1,-1,-1,-1,-1,-1,-1,-1,-1,-1,-1,-1,-1,-1],"loss_changes":[1.4778527E1,1.7481703E1,1.2879602E1,1.9809723E1,1.4150086E1,1.6350462E1,1.1122284E1,2.2771957E1,1.7049274E1,1.0569969E1,9.546085E0,9.67761E0,1.441087E1,1.3203922E1,1.3346255E1,0E0,0E0,0E0,0E0,0E0,0E0,0E0,0E0,0E0,0E0,0E0,0E0,0E0,0E0,0E0,0E0],"parents":[2147483647,0,0,1,1,2,2,3,3,4,4,5,5,6,6,7,7,8,8,9,9,10,10,11,11,12,12,13,13,14,14],"right_children":[2,4,6,8,10,12,14,16,18,20,22,24,26,28,30,-1,-1,-1,-1,-1,-1,-1,-1,-1,-1,-1,-1,-1,-1,-1,-1],"split_conditions":[6.3063E0,5.84E-2,1.1346E1,2.79E0,2.67E-2,6.883E1,4.5312E1,7.394E-1,1.02E0,3.44E-2,7.986E1,7.94E-2,3.56E-2,4E-4,1.5419788E9,-9.794401E-2,5.2417137E-2,2.0617594E-3,-4.0477708E-2,4.2200062E-2,-7.6014556E-2,8.321886E-2,-8.361445E-3,3.961241E-2,-9.2255116E-2,1.6938673E-2,9.436781E-2,4.2645175E-2,-3.1060413E-2,-3.682194E-2,8.55507E-2],"split_indices":[19,21,0,5,3,25,0,31,37,8,35,15,6,22,38,0,0,0,0,0,0,0,0,0,0,0,0,0,0,0,0],"split_type":[0,0,0,0,0,0,0,0,0,0,0,0,0,0,0,0,0,0,0,0,0,0,0,0,0,0,0,0,0,0,0],"sum_hessian":[1.8595841E3,1.4490449E3,4.1053918E2,1.3216677E3,1.2737722E2,1.8190764E2,2.2863153E2,7.7538956E1,1.2441288E3,3.7582E1,8.979522E1,2.6234432E1,1.5567322E2,1.7391154E2,5.471999E1,6.202013E1,1.5518825E1,1.0921659E3,1.519628E2,1.7128809E1,2.0453192E1,7.3631615E1,1.6163605E1,1.0457894E1,1.5776538E1,6.9219055E1,8.6454155E1,4.4147064E1,1.2976448E2,1.4564755E1,4.015523E1],"tree_param":{"num_deleted":"0","num_feature":"39","num_nodes":"31","size_leaf_vector":"1"}},{"base_weights":[-1.1671319E-2,-1.363996E-1,5.5222895E-2,-3.7500855E-1,-2.578716E-2,1.0445063E-1,-4.2204443E-1,-2.0792983E-1,-7.229712E-1,4.1483334E-1,-9.638304E-2,1.5578255E-1,-2.4452168E-1,-8.4489423E-1,-5.726258E-2,-1.2755144E-2,-1.6083768E-1,-1.0578745E-1,4.1792255E-2,-4.7492422E-2,8.767508E-2,-4.7474653E-2,2.2649986E-3,2.1150231E-2,-8.227461E-2,3.4385365E-2,-7.089781E-2,3.8451832E-3,-1.2398794E-1,4.8401967E-2,-4.0366445E-2],"categories":[],"categories_nodes":[],"categories_segments":[],"categories_sizes":[],"default_left":[0,0,0,0,0,0,0,0,0,0,0,0,0,0,0,0,0,0,0,0,0,0,0,0,0,0,0,0,0,0,0],"id":26,"left_children":[1,3,5,7,9,11,13,15,17,19,21,23,25,27,29,-1,-1,-1,-1,-1,-1,-1,-1,-1,-1,-1,-1,-1,-1,-1,-1],"loss_changes":[1.5370427E1,1.6435314E1,2.7419827E1,9.938957E0,1.3554993E1,1.9241482E1,1.5271315E1,1.3824205E1,1.1845222E1,1.6335312E1,1.4031752E1,1.5723726E1,2.5685848E1,9.4650955E0,8.225702E0,0E0,0E0,0E0,0E0,0E0,0E0,0E0,0E0,0E0,0E0,0E0,0E0,0E0,0E0,0E0,0E0],"parents":[2147483647,0,0,1,1,2,2,3,3,4,4,5,5,6,6,7,7,8,8,9,9,10,10,11,11,12,12,13,13,14,14],"right_children":[2,4,6,8,10,12,14,16,18,20,22,24,26,28,30,-1,-1,-1,-1,-1,-1,-1,-1,-1,-1,-1,-1,-1,-1,-1,-1],"split_conditions":[8.3E-2,6.581E1,1.57E2,2.1E-1,4.902E0,8.097E1,6.7447844E5,2.386E1,1.00394E1,3.12E-2,-4.2E-1,8.495E-1,8.628E0,1.5E-2,7.84E-2,-1.2755144E-2,-1.6083768E-1,-1.0578745E-1,4.1792255E-2,-4.7492422E-2,8.767508E-2,-4.7474653E-2,2.2649986E-3,2.1150231E-2,-8.227461E-2,3.4385365E-2,-7.089781E-2,3.8451832E-3,-1.2398794E-1,4.8401967E-2,-4.0366445E-2],"split_indices":[33,34,36,37,0,10,26,27,19,6,37,31,0,29,13,0,0,0,0,0,0,0,0,0,0,0,0,0,0,0,0],"split_type":[0,0,0,0,0,0,0,0,0,0,0,0,0,0,0,0,0,0,0,0,0,0,0,0,0,0,0,0,0,0,0],"sum_hessian":[1.8236783E3,6.4342365E2,1.1802546E3,1.9790535E2,4.4551828E2,1.0742753E3,1.0597935E2,1.3898372E2,5.8921646E1,5.7143883E1,3.8837442E2,9.4125604E2,1.3301926E2,4.5849407E1,6.0129944E1,1.309856E2,7.998115E0,5.287307E1,6.048576E0,1.4556129E1,4.258775E1,1.1001504E2,2.7835938E2,9.224081E2,1.884798E1,5.0979813E1,8.2039444E1,7.0546765E0,3.879473E1,2.0333906E1,3.9796036E1],"tree_param":{"num_deleted":"0","num_feature":"39","num_nodes":"31","size_leaf_vector":"1"}},{"base_weights":[2.8708905E-3,-4.076697E-2,2.401311E-1,-8.936047E-2,1.7549303E-1,9.101912E-2,5.740393E-1,-1.9136266E-1,3.962325E-2,2.2809246E-1,-6.648133E-1,2.8485626E-1,-3.9398482E-1,9.973808E-2,8.950353E-1,-6.405405E-2,-1.4863332E-2,-8.2883163E-4,5.556288E-2,1.3131122E-2,7.3580295E-2,-1.5260193E-1,3.958975E-4,4.920291E-2,-2.1766063E-2,5.213817E-2,-7.4017845E-2,-9.004731E-2,5.6891587E-2,1.815687E-2,1.303952E-1],"categories":[],"categories_nodes":[],"categories_segments":[],"categories_sizes":[],"default_left":[0,0,0,0,0,0,0,0,0,0,0,0,0,0,0,0,0,0,0,0,0,0,0,0,0,0,0,0,0,0,0],"id":27,"left_children":[1,3,5,7,9,11,13,15,17,19,21,23,25,27,29,-1,-1,-1,-1,-1,-1,-1,-1,-1,-1,-1,-1,-1,-1,-1,-1],"loss_changes":[1.96307E1,1.6437185E1,1.3618336E1,1.722583E1,1.2250968E1,1.9828888E1,1.1704859E1,1.5713076E1,1.1812503E1,1.1147929E1,8.204866E0,9.443565E0,1.170328E1,1.3058707E1,4.9621468E0,0E0,0E0,0E0,0E0,0E0,0E0,0E0,0E0,0E0,0E0,0E0,0E0,0E0,0E0,0E0,0E0],"parents":[2147483647,0,0,1,1,2,2,3,3,4,4,5,5,6,6,7,7,8,8,9,9,10,10,11,11,12,12,13,13,14,14],"right_children":[2,4,6,8,10,12,14,16,18,20,22,24,26,28,30,-1,-1,-1,-1,-1,-1,-1,-1,-1,-1,-1,-1,-1,-1,-1,-1],"split_conditions":[3.8914E1,8.019E1,7.782E-1,2.37E-2,9.094E1,1.8533686E9,-2E-2,1.429E-1,8.104E1,9.3476E0,9.174E0,7.91E1,1.327E-1,1.539293E9,1.34E1,-6.405405E-2,-1.4863332E-2,-8.2883163E-4,5.556288E-2,1.3131122E-2,7.3580295E-2,-1.5260193E-1,3.958975E-4,4.920291E-2,-2.1766063E-2,5.213817E-2,-7.4017845E-2,-9.004731E-2,5.6891587E-2,1.815687E-2,1.303952E-1],"split_indices":[0,25,20,30,25,38,37,20,35,11,0,10,20,38,27,0,0,0,0,0,0,0,0,0,0,0,0,0,0,0,0],"split_type":[0,0,0,0,0,0,0,0,0,0,0,0,0,0,0,0,0,0,0,0,0,0,0,0,0,0,0,0,0,0,0],"sum_hessian":[1.8635453E3,1.5704348E3,2.9311047E2,1.2888951E3,2.8153964E2,2.076389E2,8.5471565E1,7.254276E2,5.634675E2,2.6814243E2,1.33972225E1,1.511663E2,5.647259E1,3.7531025E1,4.794054E1,1.1344553E2,6.119821E2,5.065623E2,5.6905254E1,2.1005193E2,5.8090504E1,7.0946245E0,6.302598E0,1.2188326E2,2.928305E1,1.0117225E1,4.6355366E1,9.585254E0,2.794577E1,1.219309E1,3.5747448E1],"tree_param":{"num_deleted":"0","num_feature":"39","num_nodes":"31","size_leaf_vector":"1"}},{"base_weights":[8.551081E-3,-5.75056E-1,2.7008722E-2,8.495711E-2,-8.060087E-1,-1.0903662E-1,9.759241E-2,-0E0,-1.0982659E0,-3.1876248E-1,3.199633E-3,1.12826504E-1,-6.325579E-1,-7.081374E-2,5.0172843E-2,-1.1706974E-2,-1.5426743E-1,-6.6199936E-2,7.0967674E-3,-9.134546E-2,8.108795E-3,1.0557665E-2,9.879857E-2,1.0551999E-2,-1.3150531E-1],"categories":[],"categories_nodes":[],"categories_segments":[],"categories_sizes":[],"default_left":[0,0,0,0,0,0,0,0,0,0,0,0,0,0,0,0,0,0,0,0,0,0,0,0,0],"id":28,"left_children":[1,3,5,-1,7,9,11,13,15,17,19,21,23,-1,-1,-1,-1,-1,-1,-1,-1,-1,-1,-1,-1],"loss_changes":[1.9199198E1,1.758108E1,1.7301964E1,0E0,9.869755E0,1.48032875E1,1.2685507E1,4.8164873E0,4.082844E0,1.9867126E1,1.8506317E1,1.9242222E1,9.28856E0,0E0,0E0,0E0,0E0,0E0,0E0,0E0,0E0,0E0,0E0,0E0,0E0],"parents":[2147483647,0,0,1,1,2,2,4,4,5,5,6,6,7,7,8,8,9,9,10,10,11,11,12,12],"right_children":[2,4,6,-1,8,10,12,14,16,18,20,22,24,-1,-1,-1,-1,-1,-1,-1,-1,-1,-1,-1,-1],"split_conditions":[8.94617E4,1.1592626E9,1.01E1,8.495711E-2,1.212E-1,7.397E1,7.698E1,-2.53E-1,2.2E-3,3.07E-2,-9.3E-1,7.429E1,2.695E-1,-7.081374E-2,5.0172843E-2,-1.1706974E-2,-1.5426743E-1,-6.6199936E-2,7.0967674E-3,-9.134546E-2,8.108795E-3,1.0557665E-2,9.879857E-2,1.0551999E-2,-1.3150531E-1],"split_indices":[26,38,5,0,13,24,34,19,22,30,37,34,31,0,0,0,0,0,0,0,0,0,0,0,0],"split_type":[0,0,0,0,0,0,0,0,0,0,0,0,0,0,0,0,0,0,0,0,0,0,0,0,0],"sum_hessian":[1.8509901E3,5.2227974E1,1.7987622E3,6.2910676E0,4.5936905E1,6.0697E2,1.1917922E3,1.4058792E1,3.1878113E1,2.1466602E2,3.9230396E2,1.1712687E3,2.0523523E1,6.785219E0,7.273573E0,6.785587E0,2.5092525E1,1.3459914E2,8.006689E1,2.6804043E1,3.654999E2,1.1360714E3,3.519734E1,7.5142756E0,1.3009247E1],"tree_param":{"num_deleted":"0","num_feature":"39","num_nodes":"25","size_leaf_vector":"1"}},{"base_weights":[-2.7383996E-2,-6.0576938E-2,2.3789127E-1,2.0700865E-3,-2.191487E-1,3.4951854E-1,-1.9540393E-1,-5.202154E-2,2.7362633E-1,2.665026E-1,-3.125908E-1,1.339616E-1,6.874781E-1,-6.590434E-1,4.9916866E-1,-1.1652509E-2,4.451686E-2,6.391905E-2,-1.7710418E-3,9.784892E-2,-1.649535E-2,-4.292695E-2,4.002988E-2,4.1782163E-2,-6.5593824E-2,1.1998934E-1,1.1582315E-2,-1.2490098E-1,2.7312875E-2,8.4960386E-2,5.155475E-3],"categories":[],"categories_nodes":[],"categories_segments":[],"categories_sizes":[],"default_left":[0,0,0,0,0,0,0,0,0,0,0,0,0,0,0,0,0,0,0,0,0,0,0,0,0,0,0,0,0,0,0],"id":29,"left_children":[1,3,5,7,9,11,13,15,17,19,21,23,25,27,29,-1,-1,-1,-1,-1,-1,-1,-1,-1,-1,-1,-1,-1,-1,-1,-1],"loss_changes":[1.5696985E1,1.6350466E1,9.892581E0,1.728492E1,2.1297228E1,1.0240368E1,1.3559957E1,1.7940145E1,1.5423684E1,1.7533588E1,1.1713402E1,1.5154976E1,9.078402E0,1.0400654E1,3.2726336E-1,0E0,0E0,0E0,0E0,0E0,0E0,0E0,0E0,0E0,0E0,0E0,0E0,0E0,0E0,0E0,0E0],"parents":[2147483647,0,0,1,1,2,2,3,3,4,4,5,5,6,6,7,7,8,8,9,9,10,10,11,11,12,12,13,13,14,14],"right_children":[2,4,6,8,10,12,14,16,18,20,22,24,26,28,30,-1,-1,-1,-1,-1,-1,-1,-1,-1,-1,-1,-1,-1,-1,-1,-1],"split_conditions":[2.241E1,2.56E-2,2.36E-2,2.0801299E9,6.919E1,6.22E-2,7.869E1,8.95E-2,3.396E-1,-1.9417E0,6.86E-2,1.30966E1,5.78E-2,1.00478E1,7.77E-2,-1.1652509E-2,4.451686E-2,6.391905E-2,-1.7710418E-3,9.784892E-2,-1.649535E-2,-4.292695E-2,4.002988E-2,4.1782163E-2,-6.5593824E-2,1.1998934E-1,1.1582315E-2,-1.2490098E-1,2.7312875E-2,8.4960386E-2,5.155475E-3],"split_indices":[27,21,32,38,35,33,24,14,4,19,30,1,14,4,15,0,0,0,0,0,0,0,0,0,0,0,0,0,0,0,0],"split_type":[0,0,0,0,0,0,0,0,0,0,0,0,0,0,0,0,0,0,0,0,0,0,0,0,0,0,0,0,0,0,0],"sum_hessian":[1.8060742E3,1.6116603E3,1.9441394E2,1.1502645E3,4.613958E2,1.576133E2,3.6800632E1,9.562498E2,1.9401472E2,7.125447E1,3.9014133E2,1.0080142E2,5.6811882E1,2.339791E1,1.3402724E1,8.688847E2,8.736511E1,1.0389959E2,9.0115135E1,3.0768038E1,4.0486435E1,3.6779327E2,2.2348053E1,7.914717E1,2.1654251E1,3.453946E1,2.2272423E1,1.7234936E1,6.162973E0,6.1462383E0,7.2564864E0],"tree_param":{"num_deleted":"0","num_feature":"39","num_nodes":"31","size_leaf_vector":"1"}},{"base_weights":[3.6781423E-2,-2.4387196E-1,6.831702E-2,-3.8393164E-1,2.6172957E-1,2.1603738E-1,-1.4448922E-2,-4.995058E-1,3.68365E-1,9.3008536E-1,-9.78887E-2,-4.3282506E-1,2.5968796E-1,-1.24974534E-1,1.6717348E-1,-9.827183E-3,-9.122735E-2,-1.8740028E-2,1.1284149E-1,1.528798E-1,1.7179212E-2,6.0191453E-2,-5.8508914E-2,-1.16041094E-1,4.9754814E-3,-1.5370824E-2,3.724853E-2,-1.6547414E-3,-4.7161948E-2,2.7663402E-2,-9.006225E-2],"categories":[],"categories_nodes":[],"categories_segments":[],"categories_sizes":[],"default_left":[0,0,0,0,0,0,0,0,0,0,0,0,0,0,0,0,0,0,0,0,0,0,0,0,0,0,0,0,0,0,0],"id":30,"left_children":[1,3,5,7,9,11,13,15,17,19,21,23,25,27,29,-1,-1,-1,-1,-1,-1,-1,-1,-1,-1,-1,-1,-1,-1,-1,-1],"loss_changes":[1.636155E1,1.3510599E1,2.0969715E1,1.3484243E1,1.08497E1,1.737922E1,2.1650837E1,1.2881256E1,7.275733E0,1.6719542E0,6.635292E0,1.0912945E1,1.1702938E1,1.9567806E1,2.3099567E1,0E0,0E0,0E0,0E0,0E0,0E0,0E0,0E0,0E0,0E0,0E0,0E0,0E0,0E0,0E0,0E0],"parents":[2147483647,0,0,1,1,2,2,3,3,4,4,5,5,6,6,7,7,8,8,9,9,10,10,11,11,12,12,13,13,14,14],"right_children":[2,4,6,8,10,12,14,16,18,20,22,24,26,28,30,-1,-1,-1,-1,-1,-1,-1,-1,-1,-1,-1,-1,-1,-1,-1,-1],"split_conditions":[-9.3E-1,9.62E-1,-6E-2,1.011E-1,2.2E-2,1.55E0,6.702E1,4.0871488E5,2.628E-1,7.45E1,1.35E-2,4.308E-1,4E1,1.8082135E9,8.279E1,-9.827183E-3,-9.122735E-2,-1.8740028E-2,1.1284149E-1,1.528798E-1,1.7179212E-2,6.0191453E-2,-5.8508914E-2,-1.16041094E-1,4.9754814E-3,-1.5370824E-2,3.724853E-2,-1.6547414E-3,-4.7161948E-2,2.7663402E-2,-9.006225E-2],"split_indices":[37,20,37,6,8,5,12,26,9,24,32,31,36,38,10,0,0,0,0,0,0,0,0,0,0,0,0,0,0,0,0],"split_type":[0,0,0,0,0,0,0,0,0,0,0,0,0,0,0,0,0,0,0,0,0,0,0,0,0,0,0,0,0,0,0],"sum_hessian":[1.8710382E3,1.827882E2,1.68825E3,1.4582307E2,3.6965122E1,6.1125525E2,1.0769948E3,1.2874469E2,1.7078371E1,1.3092324E1,2.3872799E1,3.5148663E1,5.7610657E2,6.749773E2,4.0201746E2,5.2743374E1,7.600133E1,8.435313E0,8.643057E0,6.848759E0,6.2435656E0,7.6722803E0,1.620052E1,1.6875746E1,1.8272917E1,6.2776203E1,5.133304E2,4.8252954E2,1.9244775E2,3.7915674E2,2.2860735E1],"tree_param":{"num_deleted":"0","num_feature":"39","num_nodes":"31","size_leaf_vector":"1"}},{"base_weights":[-0E0,-4.1825745E-2,1.6509591E-1,-9.471524E-2,1.4731094E-1,-3.0219135E-1,2.94983E-1,6.759199E-2,-1.99716E-1,-1.437242E-1,3.162707E-1,3.4853274E-1,-5.3793114E-1,4.6713817E-1,1.2349914E-3,-2.7168402E-2,2.878817E-2,-6.1755884E-2,-1.2886775E-2,-5.6025956E-2,1.2783505E-2,-2.6243988E-2,4.99497E-2,-0E0,9.198921E-2,1.3721982E-2,-1.172567E-1,4.2238515E-2,1.5548994E-1,-4.1583464E-2,5.26434E-2],"categories":[],"categories_nodes":[],"categories_segments":[],"categories_sizes":[],"default_left":[0,0,0,0,0,0,0,0,0,0,0,0,0,0,0,0,0,0,0,0,0,0,0,0,0,0,0,0,0,0,0],"id":31,"left_children":[1,3,5,7,9,11,13,15,17,19,21,23,25,27,29,-1,-1,-1,-1,-1,-1,-1,-1,-1,-1,-1,-1,-1,-1,-1,-1],"loss_changes":[1.2466402E1,1.46165695E1,2.224195E1,1.986959E1,1.5851746E1,1.2620016E1,1.3873297E1,2.2872885E1,1.9491089E1,9.86269E0,1.134749E1,3.6051888E0,1.8561882E1,1.3592697E1,1.7470469E1,0E0,0E0,0E0,0E0,0E0,0E0,0E0,0E0,0E0,0E0,0E0,0E0,0E0,0E0,0E0,0E0],"parents":[2147483647,0,0,1,1,2,2,3,3,4,4,5,5,6,6,7,7,8,8,9,9,10,10,11,11,12,12,13,13,14,14],"right_children":[2,4,6,8,10,12,14,16,18,20,22,24,26,28,30,-1,-1,-1,-1,-1,-1,-1,-1,-1,-1,-1,-1,-1,-1,-1,-1],"split_conditions":[2.059E1,7.907E1,-2.0455E0,9.762E0,1.24E-2,7.076E1,6.5533E0,7.327E1,8.9E-3,-4.101E-1,2.32E-2,2.07E-2,8.3E-3,2.5483003E9,1.328E-1,-2.7168402E-2,2.878817E-2,-6.1755884E-2,-1.2886775E-2,-5.6025956E-2,1.2783505E-2,-2.6243988E-2,4.99497E-2,-0E0,9.198921E-2,1.3721982E-2,-1.172567E-1,4.2238515E-2,1.5548994E-1,-4.1583464E-2,5.26434E-2],"split_indices":[27,35,11,0,33,10,11,10,30,19,8,33,21,38,33,0,0,0,0,0,0,0,0,0,0,0,0,0,0,0,0],"split_type":[0,0,0,0,0,0,0,0,0,0,0,0,0,0,0,0,0,0,0,0,0,0,0,0,0,0,0,0,0,0,0],"sum_hessian":[1.8244415E3,1.463408E3,3.610336E2,1.150523E3,3.12885E2,7.5429405E1,2.856042E2,4.4679587E2,7.0372705E2,1.1187885E2,2.0100615E2,1.8125418E1,5.730399E1,1.760969E2,1.095073E2,1.6168404E2,2.8511185E2,1.5373933E2,5.499877E2,5.0525932E1,6.135292E1,2.8889847E1,1.721163E2,1.0034124E1,8.091293E0,2.2385666E1,3.4918324E1,1.589595E2,1.7137394E1,5.9412506E1,5.009479E1],"tree_param":{"num_deleted":"0","num_feature":"39","num_nodes":"31","size_leaf_vector":"1"}},{"base_weights":[1.6294256E-2,-3.0697588E-2,2.0283346E-1,-6.0767703E-2,2.8209195E-1,-3.3151045E-2,4.6983874E-1,-1.0156969E-1,1.8214977E-1,-8.3637215E-2,3.6524925E-1,8.5105985E-2,-1.2186147E0,-0E0,5.924692E-1,-4.506552E-2,-6.5491E-3,3.5725325E-2,-5.150909E-2,-5.9429657E-2,5.432968E-2,2.6992025E-2,-5.1061466E-2,-3.323551E-2,-1.8067506E-1,1.0428658E-1,-4.5140635E-2,-0E0,8.278545E-2],"categories":[],"categories_nodes":[],"categories_segments":[],"categories_sizes":[],"default_left":[0,0,0,0,0,0,0,0,0,0,0,0,0,0,0,0,0,0,0,0,0,0,0,0,0,0,0,0,0],"id":32,"left_children":[1,3,5,7,9,11,13,15,17,-1,19,21,23,25,27,-1,-1,-1,-1,-1,-1,-1,-1,-1,-1,-1,-1,-1,-1],"loss_changes":[1.6132402E1,1.32752905E1,2.4034872E1,1.3020441E1,1.0071053E1,2.9371426E1,1.0639908E1,1.3975669E1,1.3200947E1,0E0,9.149203E0,1.2711535E1,1.5951862E0,1.2671454E1,7.614914E0,0E0,0E0,0E0,0E0,0E0,0E0,0E0,0E0,0E0,0E0,0E0,0E0,0E0,0E0],"parents":[2147483647,0,0,1,1,2,2,3,3,4,4,5,5,6,6,7,7,8,8,10,10,11,11,12,12,13,13,14,14],"right_children":[2,4,6,8,10,12,14,16,18,-1,20,22,24,26,28,-1,-1,-1,-1,-1,-1,-1,-1,-1,-1,-1,-1,-1,-1],"split_conditions":[1.516E-1,8.234E-1,1.5419788E9,8.03E1,-1.39E0,8.67E-2,7.288E1,2.53E-2,6.38E-2,-8.3637215E-2,7.2E-3,6.819E-1,9.09E-2,-8.9339E0,-5E-1,-4.506552E-2,-6.5491E-3,3.5725325E-2,-5.150909E-2,-5.9429657E-2,5.432968E-2,2.6992025E-2,-5.1061466E-2,-3.323551E-2,-1.8067506E-1,1.0428658E-1,-4.5140635E-2,-0E0,8.278545E-2],"split_indices":[3,9,38,35,37,6,24,29,6,0,13,9,20,4,37,0,0,0,0,0,0,0,0,0,0,0,0,0,0],"split_type":[0,0,0,0,0,0,0,0,0,0,0,0,0,0,0,0,0,0,0,0,0,0,0,0,0,0,0,0,0],"sum_hessian":[1.8078577E3,1.4393424E3,3.6851526E2,1.3190269E3,1.2031564E2,1.9377568E2,1.747396E2,1.1356062E3,1.834206E2,6.7381854E0,1.1357745E2,1.7699347E2,1.678221E1,3.5379707E1,1.3935988E2,1.5953577E2,9.7607043E2,1.5726566E2,2.6154934E1,7.9520054E0,1.0562545E2,1.4219252E2,3.4800953E1,6.1412168E0,1.0640993E1,9.1920595E0,2.6187649E1,2.1080454E1,1.1827943E2],"tree_param":{"num_deleted":"0","num_feature":"39","num_nodes":"29","size_leaf_vector":"1"}},{"base_weights":[3.0332005E-2,-1.1983044E-1,3.8382217E-2,6.2329058E-2,-2.824222E-1,-2.6802374E-2,2.0171899E-1,-5.3680766E-1,2.71908E-1,4.9155797E-3,-4.4070806E-2,2.93554E-2,-3.5357784E-2,2.0632839E-2,-8.857695E-2,7.4501224E-2,-6.1987042E-2],"categories":[],"categories_nodes":[],"categories_segments":[],"categories_sizes":[],"default_left":[0,0,0,0,0,0,0,0,0,0,0,0,0,0,0,0,0],"id":33,"left_children":[1,-1,3,5,7,9,11,13,15,-1,-1,-1,-1,-1,-1,-1,-1],"loss_changes":[1.3829488E1,0E0,1.3686754E1,2.1363247E1,1.7987667E1,2.4288666E1,1.4303854E1,1.3439978E1,1.1385757E1,0E0,0E0,0E0,0E0,0E0,0E0,0E0,0E0],"parents":[2147483647,0,0,2,2,3,3,4,4,5,5,6,6,7,7,8,8],"right_children":[2,-1,4,6,8,10,12,14,16,-1,-1,-1,-1,-1,-1,-1,-1],"split_conditions":[2E-4,-1.1983044E-1,1.26E0,7.632E1,6.455E-1,7.499E1,8.097E1,2.53E-2,7.46E-2,4.9155797E-3,-4.4070806E-2,2.93554E-2,-3.5357784E-2,2.0632839E-2,-8.857695E-2,7.4501224E-2,-6.1987042E-2],"split_indices":[15,0,37,25,9,25,10,9,3,0,0,0,0,0,0,0,0],"split_type":[0,0,0,0,0,0,0,0,0,0,0,0,0,0,0,0,0],"sum_hessian":[1.8265428E3,1.0612542E1,1.8159303E3,1.6957238E3,1.20206505E2,1.029066E3,6.666578E2,8.424754E1,3.595896E1,8.56302E2,1.7276405E2,6.17471E2,4.9186737E1,1.7088528E1,6.715901E1,2.6547688E1,9.411276E0],"tree_param":{"num_deleted":"0","num_feature":"39","num_nodes":"17","size_leaf_vector":"1"}},{"base_weights":[1.0709125E-2,-1.5258604E-2,2.7814814E-1,2.312814E-2,-3.3653677E-1,-4.9614903E-1,4.2174414E-1,2.0430967E-1,-2.0367391E-2,-5.190437E-1,1.9349945E-1,-1.409843E-1,-0E0,-1.717144E-1,5.9251964E-1,4.2226195E-2,-5.7375287E-3,7.7120477E-4,-5.004057E-2,-8.5623585E-2,-8.0279345E-3,-1.271937E-2,8.838032E-2,6.574403E-2,-6.3574426E-2,6.970867E-3,-1.1485845E-1,9.944551E-2,2.2171434E-2],"categories":[],"categories_nodes":[],"categories_segments":[],"categories_sizes":[],"default_left":[0,0,0,0,0,0,0,0,0,0,0,0,0,0,0,0,0,0,0,0,0,0,0,0,0,0,0,0,0],"id":34,"left_children":[1,3,5,7,9,11,13,15,17,19,21,-1,23,25,27,-1,-1,-1,-1,-1,-1,-1,-1,-1,-1,-1,-1,-1,-1],"loss_changes":[1.2977333E1,2.0809765E1,1.8762978E1,1.1869573E1,1.8132412E1,7.4808736E0,1.5275553E1,1.13152E1,1.3157629E1,1.0758354E1,8.532293E0,0E0,5.763096E0,7.1495767E0,9.045128E0,0E0,0E0,0E0,0E0,0E0,0E0,0E0,0E0,0E0,0E0,0E0,0E0,0E0,0E0],"parents":[2147483647,0,0,1,1,2,2,3,3,4,4,5,5,6,6,7,7,8,8,9,9,10,10,12,12,13,13,14,14],"right_children":[2,4,6,8,10,12,14,16,18,20,22,-1,24,26,28,-1,-1,-1,-1,-1,-1,-1,-1,-1,-1,-1,-1,-1,-1],"split_conditions":[3.74E-2,8.07E-2,-5.3E-1,7.09E1,2.1541865E6,7.05E-2,7.159E1,5.76E-2,3.7004788E6,2.4272E0,2.392E1,-1.409843E-1,1E0,9.8E1,1E2,4.2226195E-2,-5.7375287E-3,7.7120477E-4,-5.004057E-2,-8.5623585E-2,-8.0279345E-3,-1.271937E-2,8.838032E-2,6.574403E-2,-6.3574426E-2,6.970867E-3,-1.1485845E-1,9.944551E-2,2.2171434E-2],"split_indices":[22,6,37,35,26,33,25,3,26,19,5,0,28,36,36,0,0,0,0,0,0,0,0,0,0,0,0,0,0],"split_type":[0,0,0,0,0,0,0,0,0,0,0,0,0,0,0,0,0,0,0,0,0,0,0,0,0,0,0,0,0],"sum_hessian":[1.8097822E3,1.6465865E3,1.6319571E2,1.4686718E3,1.779147E2,2.3070799E1,1.4012492E2,2.8919098E2,1.1794808E3,1.3442645E2,4.348826E1,7.6788797E0,1.539192E1,2.940106E1,1.10723854E2,1.8555736E2,1.0363364E2,1.103467E3,7.601379E1,9.0863785E1,4.356266E1,2.7469034E1,1.6019224E1,6.702052E0,8.689868E0,2.2930996E1,6.470063E0,6.6403244E1,4.4320614E1],"tree_param":{"num_deleted":"0","num_feature":"39","num_nodes":"29","size_leaf_vector":"1"}},{"base_weights":[3.4362435E-2,1.4923439E-4,2.2656451E-1,1.5017428E-2,-8.428438E-1,3.59713E-1,-2.3353742E-1,-2.4186434E-2,2.9927123E-1,-1.2642059E0,-3.2801358E-3,6.424629E-1,1.5430889E-1,4.335284E-1,-5.017715E-1,-4.4787647E-3,1.0815099E-1,-1.5221519E-2,4.8626266E-2,-2.0019425E-1,-3.3549886E-2,1.5454527E-2,1.0407123E-1,3.310003E-2,-5.324576E-2,8.549636E-2,-0E0,8.055263E-3,-1.0306343E-1],"categories":[],"categories_nodes":[],"categories_segments":[],"categories_sizes":[],"default_left":[0,0,0,0,0,0,0,0,0,0,0,0,0,0,0,0,0,0,0,0,0,0,0,0,0,0,0,0,0],"id":35,"left_children":[1,3,5,7,9,11,13,15,17,19,-1,21,23,25,27,-1,-1,-1,-1,-1,-1,-1,-1,-1,-1,-1,-1,-1,-1],"loss_changes":[1.1754919E1,1.8485275E1,1.6993366E1,1.764168E1,6.8111496E0,1.1026903E1,1.1292871E1,1.5276517E1,9.177353E0,2.3029137E0,0E0,8.238895E0,9.4531975E0,2.0899024E0,1.047084E1,0E0,0E0,0E0,0E0,0E0,0E0,0E0,0E0,0E0,0E0,0E0,0E0,0E0,0E0],"parents":[2147483647,0,0,1,1,2,2,3,3,4,4,5,5,6,6,7,7,8,8,9,9,11,11,12,12,13,13,14,14],"right_children":[2,4,6,8,10,12,14,16,18,20,-1,22,24,26,28,-1,-1,-1,-1,-1,-1,-1,-1,-1,-1,-1,-1,-1,-1],"split_conditions":[1.74648E1,3.25E-2,7.84E1,1.92E-2,5.021E-1,3.11E-2,6.4E1,1.474E-1,-3.3771E0,4.01E-2,-3.2801358E-3,1.4528E0,7.97E1,1.6317275E6,1.285E-1,-4.4787647E-3,1.0815099E-1,-1.5221519E-2,4.8626266E-2,-2.0019425E-1,-3.3549886E-2,1.5454527E-2,1.0407123E-1,3.310003E-2,-5.324576E-2,8.549636E-2,-0E0,8.055263E-3,-1.0306343E-1],"split_indices":[1,32,10,32,17,8,36,6,4,30,0,4,18,26,4,0,0,0,0,0,0,0,0,0,0,0,0,0,0],"split_type":[0,0,0,0,0,0,0,0,0,0,0,0,0,0,0,0,0,0,0,0,0,0,0,0,0,0,0,0,0],"sum_hessian":[1.8356182E3,1.5666089E3,2.6900937E2,1.543345E3,2.3263834E1,2.1147528E2,5.7534092E1,1.3536014E3,1.8974353E2,1.3337135E1,9.9267E0,8.396652E1,1.2750875E2,1.4540148E1,4.2993946E1,1.3383689E3,1.5232527E1,3.4910805E1,1.5483272E2,7.2950077E0,6.042127E0,2.859304E1,5.5373486E1,1.0902705E2,1.8481705E1,8.080868E0,6.45928E0,1.57048025E1,2.7289145E1],"tree_param":{"num_deleted":"0","num_feature":"39","num_nodes":"29","size_leaf_vector":"1"}},{"base_weights":[2.4216799E-2,-1.0841738E-3,3.1430405E-1,-4.6207842E-1,2.0416891E-2,-2.533095E-1,5.3006923E-1,-7.517685E-1,2.0337795E-1,-2.1032888E-2,2.2928235E-1,1.1584318E-1,-7.8994274E-1,6.3133204E-1,-0E0,-1.1208973E-1,1.75419E-2,7.687865E-2,-6.138732E-2,-3.195938E-2,2.0393103E-3,5.851852E-2,-0E0,5.6708667E-2,-5.7444055E-2,-1.2947868E-1,-1.0312355E-2,2.267952E-2,9.6489236E-2,9.699351E-2,-8.531083E-2],"categories":[],"categories_nodes":[],"categories_segments":[],"categories_sizes":[],"default_left":[0,0,0,0,0,0,0,0,0,0,0,0,0,0,0,0,0,0,0,0,0,0,0,0,0,0,0,0,0,0,0],"id":36,"left_children":[1,3,5,7,9,11,13,15,17,19,21,23,25,27,29,-1,-1,-1,-1,-1,-1,-1,-1,-1,-1,-1,-1,-1,-1,-1,-1],"loss_changes":[1.3839295E1,1.7264126E1,1.9188475E1,1.6133497E1,1.4159105E1,9.358919E0,6.7856617E0,1.063582E1,8.3764E0,1.2778164E1,1.5520899E1,5.7582183E0,1.8926239E0,5.526203E0,1.1671648E1,0E0,0E0,0E0,0E0,0E0,0E0,0E0,0E0,0E0,0E0,0E0,0E0,0E0,0E0,0E0,0E0],"parents":[2147483647,0,0,1,1,2,2,3,3,4,4,5,5,6,6,7,7,8,8,9,9,10,10,11,11,12,12,13,13,14,14],"right_children":[2,4,6,8,10,12,14,16,18,20,22,24,26,28,30,-1,-1,-1,-1,-1,-1,-1,-1,-1,-1,-1,-1,-1,-1,-1,-1],"split_conditions":[8.393E1,7.7E-3,-3.0747E0,6.55E-2,2.1100521E9,8.621E1,9.094E1,8.062E1,7.867E1,3.84E-2,2.829E-1,6.7E-2,-4.7131E0,4.118E-1,2.5482E0,-1.1208973E-1,1.75419E-2,7.687865E-2,-6.138732E-2,-3.195938E-2,2.0393103E-3,5.851852E-2,-0E0,5.6708667E-2,-5.7444055E-2,-1.2947868E-1,-1.0312355E-2,2.267952E-2,9.6489236E-2,9.699351E-2,-8.531083E-2],"split_indices":[25,15,11,8,38,25,25,25,10,31,31,8,11,13,11,0,0,0,0,0,0,0,0,0,0,0,0,0,0,0,0],"split_type":[0,0,0,0,0,0,0,0,0,0,0,0,0,0,0,0,0,0,0,0,0,0,0,0,0,0,0,0,0,0,0],"sum_hessian":[1.8209791E3,1.6723501E3,1.4862907E2,7.547639E1,1.5968737E3,3.896632E1,1.0966276E2,5.3906975E1,2.1569412E1,1.3283214E3,2.6855228E2,2.2528578E1,1.6437742E1,9.366088E1,1.6001875E1,4.6098812E1,7.8081636E0,1.4797633E1,6.77178E0,1.8164568E2,1.1466758E3,1.2296249E2,1.455898E2,1.5905901E1,6.622678E0,9.3335705E0,7.104171E0,2.9972822E1,6.368806E1,6.531794E0,9.47008E0],"tree_param":{"num_deleted":"0","num_feature":"39","num_nodes":"31","size_leaf_vector":"1"}},{"base_weights":[-4.5453E-3,1.0704081E-1,-1.24621615E-1,1.8963291E-3,2.710078E-1,-2.5452565E-2,-4.3837568E-1,-5.049584E-1,7.348681E-2,-2.964157E-1,3.529722E-1,1.3380001E-1,-4.77349E-2,1.2769762E-1,-5.934282E-1,-7.470567E-2,4.0653255E-2,-1.53245535E-2,2.7594764E-2,-1.19615465E-1,1.1311663E-2,8.953231E-2,2.785474E-2,-1.3147675E-2,3.9302956E-2,4.6264425E-2,-5.096566E-2,-1.5502843E-2,-9.6793614E-2],"categories":[],"categories_nodes":[],"categories_segments":[],"categories_sizes":[],"default_left":[0,0,0,0,0,0,0,0,0,0,0,0,0,0,0,0,0,0,0,0,0,0,0,0,0,0,0,0,0],"id":37,"left_children":[1,3,5,7,9,11,13,15,17,19,21,-1,23,25,27,-1,-1,-1,-1,-1,-1,-1,-1,-1,-1,-1,-1,-1,-1],"loss_changes":[2.44657E1,1.5792818E1,2.6830128E1,2.04988E1,1.7133383E1,1.5794752E1,1.9180931E1,7.776306E0,1.6341879E1,1.3729155E1,1.3345211E1,0E0,1.5263372E1,6.6817102E0,1.4842098E1,0E0,0E0,0E0,0E0,0E0,0E0,0E0,0E0,0E0,0E0,0E0,0E0,0E0,0E0],"parents":[2147483647,0,0,1,1,2,2,3,3,4,4,5,5,6,6,7,7,8,8,9,9,10,10,12,12,13,13,14,14],"right_children":[2,4,6,8,10,12,14,16,18,20,22,-1,24,26,28,-1,-1,-1,-1,-1,-1,-1,-1,-1,-1,-1,-1,-1,-1],"split_conditions":[7.498E1,1.547E1,1.853045E9,6.972E1,6.636E1,1.3E-2,6.989E1,5.95E-2,9.3E-3,7.867E-1,0E0,1.3380001E-1,8.108E1,5.288E-1,-1.0944E0,-7.470567E-2,4.0653255E-2,-1.53245535E-2,2.7594764E-2,-1.19615465E-1,1.1311663E-2,8.953231E-2,2.785474E-2,-1.3147675E-2,3.9302956E-2,4.6264425E-2,-5.096566E-2,-1.5502843E-2,-9.6793614E-2],"split_indices":[35,27,38,10,25,29,10,21,22,20,2,0,18,31,4,0,0,0,0,0,0,0,0,0,0,0,0,0,0],"split_type":[0,0,0,0,0,0,0,0,0,0,0,0,0,0,0,0,0,0,0,0,0,0,0,0,0,0,0,0,0],"sum_hessian":[1.8195178E3,9.369326E2,8.8258527E2,5.776808E2,3.5925183E2,6.760149E2,2.0657037E2,6.727606E1,5.104047E2,4.2349438E1,3.1690237E2,9.574404E0,6.664405E2,4.2479115E1,1.6409126E2,6.1099995E1,6.1760697E0,2.1935512E2,2.910496E2,1.5246662E1,2.7102774E1,6.899773E1,2.4790465E2,5.7691174E2,8.952875E1,3.1231619E1,1.1247496E1,5.488419E1,1.0920707E2],"tree_param":{"num_deleted":"0","num_feature":"39","num_nodes":"29","size_leaf_vector":"1"}},{"base_weights":[-0E0,2.5533867E-1,-4.5150276E-2,4.5749955E-2,5.5231386E-1,-9.073581E-2,1.4927174E-1,5.74576E-1,-1.886025E-1,7.0735604E-1,3.4491036E-3,4.4674333E-3,-1.9955635E-1,-5.4651505E-1,2.070689E-1,-0E0,9.757028E-2,-9.286815E-2,1.214072E-2,9.500194E-2,-9.599825E-3,9.6533544E-2,-2.9566247E-2,-4.5977227E-2,8.414979E-3,-7.5931633E-3,-4.87572E-2,-1.3390571E-1,2.259749E-2,3.1153668E-2,-6.782083E-2],"categories":[],"categories_nodes":[],"categories_segments":[],"categories_sizes":[],"default_left":[0,0,0,0,0,0,0,0,0,0,0,0,0,0,0,0,0,0,0,0,0,0,0,0,0,0,0,0,0,0,0],"id":38,"left_children":[1,3,5,7,9,11,13,15,17,19,21,23,25,27,29,-1,-1,-1,-1,-1,-1,-1,-1,-1,-1,-1,-1,-1,-1,-1,-1],"loss_changes":[2.086923E1,1.6024868E1,1.3465746E1,2.1262537E1,8.2858925E0,1.3166791E1,1.1203611E1,6.9731445E0,2.0507666E1,6.697941E0,6.9605184E0,1.6342085E1,1.5796814E1,1.0402179E1,1.0668968E1,0E0,0E0,0E0,0E0,0E0,0E0,0E0,0E0,0E0,0E0,0E0,0E0,0E0,0E0,0E0,0E0],"parents":[2147483647,0,0,1,1,2,2,3,3,4,4,5,5,6,6,7,7,8,8,9,9,10,10,11,11,12,12,13,13,14,14],"right_children":[2,4,6,8,10,12,14,16,18,20,22,24,26,28,30,-1,-1,-1,-1,-1,-1,-1,-1,-1,-1,-1,-1,-1,-1,-1,-1],"split_conditions":[4.09E-2,2E0,2.65E-2,7.9E-3,7.977E1,5.165E-1,1.64E-2,4.687E-1,7.387E1,9.9953E0,1.6E-3,1.2961294E9,9.8E1,9.22E-2,2.392E1,-0E0,9.757028E-2,-9.286815E-2,1.214072E-2,9.500194E-2,-9.599825E-3,9.6533544E-2,-2.9566247E-2,-4.5977227E-2,8.414979E-3,-7.5931633E-3,-4.87572E-2,-1.3390571E-1,2.259749E-2,3.1153668E-2,-6.782083E-2],"split_indices":[15,28,22,32,25,4,14,13,18,19,22,38,36,29,5,0,0,0,0,0,0,0,0,0,0,0,0,0,0,0,0],"split_type":[0,0,0,0,0,0,0,0,0,0,0,0,0,0,0,0,0,0,0,0,0,0,0,0,0,0,0,0,0,0,0],"sum_hessian":[1.7933768E3,2.7012527E2,1.5232516E3,1.6277501E2,1.0735026E2,1.240991E3,2.8226068E2,5.0884453E1,1.1189056E2,8.112293E1,2.6227324E1,6.5592053E2,5.850704E2,1.8242773E1,2.640179E2,1.6033587E1,3.485087E1,3.747425E1,7.44163E1,7.4963135E1,6.159799E0,6.427536E0,1.9799788E1,9.020296E1,5.657176E2,3.5854337E2,2.2652702E2,1.0738211E1,7.5045624E0,2.5040125E2,1.3616682E1],"tree_param":{"num_deleted":"0","num_feature":"39","num_nodes":"31","size_leaf_vector":"1"}},{"base_weights":[1.5288116E-2,-3.407812E-2,1.8601532E-1,9.3354486E-2,-1.5653914E-1,-4.4491845E-1,2.518716E-1,4.7758853E-1,6.604256E-3,6.749984E-2,-3.4858933E-1,9.1510154E-2,-9.142326E-1,2.9045117E-1,-4.3849015E-1,1.16063006E-1,1.62504E-2,-4.5278832E-2,1.0071395E-2,-1.8768839E-3,7.894191E-2,-5.7734274E-3,-7.2441615E-2,-4.2913232E-2,9.6682966E-2,-1.5470871E-1,-0E0,5.9960753E-2,1.9309703E-2,1.6611362E-2,-1.03486836E-1],"categories":[],"categories_nodes":[],"categories_segments":[],"categories_sizes":[],"default_left":[0,0,0,0,0,0,0,0,0,0,0,0,0,0,0,0,0,0,0,0,0,0,0,0,0,0,0,0,0,0,0],"id":39,"left_children":[1,3,5,7,9,11,13,15,17,19,21,23,25,27,29,-1,-1,-1,-1,-1,-1,-1,-1,-1,-1,-1,-1,-1,-1,-1,-1],"loss_changes":[1.5289287E1,2.1672657E1,1.6908165E1,2.1693535E1,3.1046478E1,1.0767161E1,9.996754E0,1.830223E1,1.6071873E1,1.6975458E1,2.8591282E1,7.0728455E0,5.6207504E0,8.505674E0,5.8763337E0,0E0,0E0,0E0,0E0,0E0,0E0,0E0,0E0,0E0,0E0,0E0,0E0,0E0,0E0,0E0,0E0],"parents":[2147483647,0,0,1,1,2,2,3,3,4,4,5,5,6,6,7,7,8,8,9,9,10,10,11,11,12,12,13,13,14,14],"right_children":[2,4,6,8,10,12,14,16,18,20,22,24,26,28,30,-1,-1,-1,-1,-1,-1,-1,-1,-1,-1,-1,-1,-1,-1,-1,-1],"split_conditions":[7.914E1,7.313E1,-6.2606E0,1.765E-1,6.653E1,-9.2924E0,8.167E1,1.866E-1,1.4581526E9,6.606E1,2.075E-1,4.979E-1,7.525E-1,7.59E-2,-1.0881E0,1.16063006E-1,1.62504E-2,-4.5278832E-2,1.0071395E-2,-1.8768839E-3,7.894191E-2,-5.7734274E-3,-7.2441615E-2,-4.2913232E-2,9.6682966E-2,-1.5470871E-1,-0E0,5.9960753E-2,1.9309703E-2,1.6611362E-2,-1.03486836E-1],"split_indices":[35,35,4,20,34,4,10,15,38,34,4,33,31,3,11,0,0,0,0,0,0,0,0,0,0,0,0,0,0,0,0],"split_type":[0,0,0,0,0,0,0,0,0,0,0,0,0,0,0,0,0,0,0,0,0,0,0,0,0,0,0,0,0,0,0],"sum_hessian":[1.783807E3,1.3784858E3,4.053212E2,6.699582E2,7.0852765E2,3.498202E1,3.7033917E2,1.1842118E2,5.51537E2,3.2420154E2,3.843261E2,1.5725248E1,1.9256775E1,3.5398334E2,1.6355837E1,4.528378E1,7.31374E1,8.781873E1,4.6371826E2,2.8393552E2,4.0266033E1,1.8023643E2,2.0408969E2,9.09426E0,6.630988E0,1.1948782E1,7.307992E0,1.2868982E2,2.2529352E2,6.1132913E0,1.0242546E1],"tree_param":{"num_deleted":"0","num_feature":"39","num_nodes":"31","size_leaf_vector":"1"}},{"base_weights":[-1.303782E-3,-6.066492E-2,1.4115109E-1,7.746587E-2,-1.437128E-1,-2.1365195E-4,3.2067484E-1,-3.2870343E-1,1.686683E-1,-2.0973416E-1,1.584226E-1,-1.3696855E-1,3.8288328E-1,-9.365735E-2,3.639621E-1,6.3943036E-2,-6.384015E-2,8.718059E-2,1.1993585E-2,-7.596298E-2,-1.678382E-2,-2.6339818E-2,4.8926376E-2,-2.759783E-2,5.6286138E-2,-1.2416463E-2,7.7517696E-2,8.728649E-2,2.457973E-2],"categories":[],"categories_nodes":[],"categories_segments":[],"categories_sizes":[],"default_left":[0,0,0,0,0,0,0,0,0,0,0,0,0,0,0,0,0,0,0,0,0,0,0,0,0,0,0,0,0],"id":40,"left_children":[1,3,5,7,9,11,13,15,17,19,21,23,25,-1,27,-1,-1,-1,-1,-1,-1,-1,-1,-1,-1,-1,-1,-1,-1],"loss_changes":[1.52352295E1,1.49052515E1,1.3836583E1,1.7627354E1,1.6351727E1,1.5081123E1,1.1312347E1,1.5620414E1,1.3789425E1,1.8535868E1,1.3937078E1,1.2280603E1,1.0494027E1,0E0,1.1629406E1,0E0,0E0,0E0,0E0,0E0,0E0,0E0,0E0,0E0,0E0,0E0,0E0,0E0,0E0],"parents":[2147483647,0,0,1,1,2,2,3,3,4,4,5,5,6,6,7,7,8,8,9,9,10,10,11,11,12,12,14,14],"right_children":[2,4,6,8,10,12,14,16,18,20,22,24,26,-1,28,-1,-1,-1,-1,-1,-1,-1,-1,-1,-1,-1,-1,-1,-1],"split_conditions":[4.1667E0,2E-1,4.47E-2,2.88E-2,5.01E-2,5.09E-2,-8.9339E0,6.982E1,1.24E-2,6.972E1,2.806E-1,1.17E0,1.1333458E6,-9.365735E-2,4.9641E0,6.3943036E-2,-6.384015E-2,8.718059E-2,1.1993585E-2,-7.596298E-2,-1.678382E-2,-2.6339818E-2,4.8926376E-2,-2.759783E-2,5.6286138E-2,-1.2416463E-2,7.7517696E-2,8.728649E-2,2.457973E-2],"split_indices":[19,1,14,6,21,30,4,10,9,10,9,37,26,0,1,0,0,0,0,0,0,0,0,0,0,0,0,0,0],"split_type":[0,0,0,0,0,0,0,0,0,0,0,0,0,0,0,0,0,0,0,0,0,0,0,0,0,0,0,0,0],"sum_hessian":[1.8109653E3,1.2864426E3,5.245226E2,4.764949E2,8.0994775E2,2.901702E2,2.343524E2,8.3359375E1,3.9313553E2,6.6923083E2,1.4071693E2,2.1771544E2,7.2454765E1,6.1316066E0,2.282208E2,1.3832829E1,6.952654E1,3.845113E1,3.546844E2,8.937441E1,5.7985645E2,5.369792E1,8.701902E1,1.920692E2,2.5646246E1,2.3957159E1,4.849761E1,6.430191E1,1.639189E2],"tree_param":{"num_deleted":"0","num_feature":"39","num_nodes":"29","size_leaf_vector":"1"}},{"base_weights":[4.8810743E-2,7.225039E-3,2.1874675E-1,3.8400915E-2,-3.1573683E-1,3.2276416E-1,-2.4943085E-1,-8.473853E-3,3.1111243E-1,-4.0794414E-1,6.287409E-2,3.9309987E-1,-9.723257E-2,-0E0,-1.265416E-1,-8.970104E-2,6.2886113E-4,8.619458E-2,1.2854708E-2,-5.87023E-2,6.313563E-2,5.4779943E-2,-3.8776122E-4,-1.0016764E-1,2.6269155E-2,2.7107768E-2,-6.974075E-2],"categories":[],"categories_nodes":[],"categories_segments":[],"categories_sizes":[],"default_left":[0,0,0,0,0,0,0,0,0,0,0,0,0,0,0,0,0,0,0,0,0,0,0,0,0,0,0],"id":41,"left_children":[1,3,5,7,9,11,13,15,17,19,-1,21,23,25,-1,-1,-1,-1,-1,-1,-1,-1,-1,-1,-1,-1,-1],"loss_changes":[1.255316E1,1.44662895E1,1.7408342E1,1.771214E1,1.0061577E1,9.119289E0,1.232539E1,1.2741883E1,1.545204E1,9.331751E0,0E0,6.999584E0,1.0773309E1,6.978985E0,0E0,0E0,0E0,0E0,0E0,0E0,0E0,0E0,0E0,0E0,0E0,0E0,0E0],"parents":[2147483647,0,0,1,1,2,2,3,3,4,4,5,5,6,6,7,7,8,8,9,9,11,11,12,12,13,13],"right_children":[2,4,6,8,10,12,14,16,18,20,-1,22,24,26,-1,-1,-1,-1,-1,-1,-1,-1,-1,-1,-1,-1,-1],"split_conditions":[3.2306E1,1.57E2,7.073E-1,1.22E2,2.237E-1,7.162E-1,4.3898E0,-2.01E0,1.07E-2,2.84481E1,6.287409E-2,2.287E1,6.69E1,7.715E1,-1.265416E-1,-8.970104E-2,6.2886113E-4,8.619458E-2,1.2854708E-2,-5.87023E-2,6.313563E-2,5.4779943E-2,-3.8776122E-4,-1.0016764E-1,2.6269155E-2,2.7107768E-2,-6.974075E-2],"split_indices":[0,36,15,36,3,31,4,37,30,1,0,27,34,24,0,0,0,0,0,0,0,0,0,0,0,0,0],"split_type":[0,0,0,0,0,0,0,0,0,0,0,0,0,0,0,0,0,0,0,0,0,0,0,0,0,0,0],"sum_hessian":[1.8212063E3,1.4719464E3,3.4925986E2,1.3483063E3,1.2364013E2,2.888941E2,6.0365734E1,1.1478566E3,2.0044978E2,1.1401927E2,9.620855E0,2.5055257E2,3.834156E1,4.803346E1,1.2332274E1,2.0646078E1,1.1272104E3,6.2648407E1,1.3780138E2,1.0734387E2,6.6754003E0,2.1895831E2,3.159425E1,1.1774676E1,2.6566883E1,3.529783E1,1.273563E1],"tree_param":{"num_deleted":"0","num_feature":"39","num_nodes":"27","size_leaf_vector":"1"}},{"base_weights":[3.1073575E-3,-6.233113E-1,2.2000607E-2,-8.7628794E-1,-0E0,-2.2243766E-1,5.2813996E-2,1.7376142E-3,-1.121416E0,6.923371E-2,-4.5998562E-2,-4.446068E-1,3.587542E-1,-2.801204E-1,7.3534794E-2,-1.6341332E-2,-1.5512587E-1,-8.143297E-2,5.6776674E-3,-3.6609966E-2,7.3977865E-2,7.7716047E-3,-8.974148E-2,4.893154E-2,6.101507E-3],"categories":[],"categories_nodes":[],"categories_segments":[],"categories_sizes":[],"default_left":[0,0,0,0,0,0,0,0,0,0,0,0,0,0,0,0,0,0,0,0,0,0,0,0,0],"id":42,"left_children":[1,3,5,7,9,11,13,-1,15,-1,-1,17,19,21,23,-1,-1,-1,-1,-1,-1,-1,-1,-1,-1],"loss_changes":[2.036519E1,8.985245E0,1.2916506E1,9.76206E0,4.139689E0,2.5070894E1,1.0480233E1,0E0,2.6414528E0,0E0,0E0,1.7155607E1,9.782911E0,1.5213761E1,1.0442345E1,0E0,0E0,0E0,0E0,0E0,0E0,0E0,0E0,0E0,0E0],"parents":[2147483647,0,0,1,1,2,2,3,3,4,4,5,5,6,6,8,8,11,11,12,12,13,13,14,14],"right_children":[2,4,6,8,10,12,14,-1,16,-1,-1,18,20,22,24,-1,-1,-1,-1,-1,-1,-1,-1,-1,-1],"split_conditions":[8.94617E4,1.7913404E9,1.91E-2,4.4E-2,9.7E-3,8.216E-1,6E0,1.7376142E-3,7.009E1,6.923371E-2,-4.5998562E-2,1.884E1,7.156E1,1.6467963E9,2.08E-2,-1.6341332E-2,-1.5512587E-1,-8.143297E-2,5.6776674E-3,-3.6609966E-2,7.3977865E-2,7.7716047E-3,-8.974148E-2,4.893154E-2,6.101507E-3],"split_indices":[26,38,14,9,22,15,27,0,25,0,0,27,25,38,29,0,0,0,0,0,0,0,0,0,0],"split_type":[0,0,0,0,0,0,0,0,0,0,0,0,0,0,0,0,0,0,0,0,0,0,0,0,0],"sum_hessian":[1.7899556E3,4.8022324E1,1.7419332E3,3.487875E1,1.3143575E1,1.8812592E2,1.5538073E3,6.703254E0,2.8175495E1,6.044334E0,7.099241E0,1.3830067E2,4.9825237E1,8.5251366E1,1.4685559E3,6.026321E0,2.2149176E1,9.517874E1,4.3121933E1,1.2226945E1,3.759829E1,4.8386684E1,3.6864677E1,8.693536E1,1.3816205E3],"tree_param":{"num_deleted":"0","num_feature":"39","num_nodes":"25","size_leaf_vector":"1"}},{"base_weights":[2.055251E-2,6.338292E-1,1.2141487E-2,1.1508465E-1,-0E0,-9.207149E-2,6.819002E-2,-1.3945682E-1,6.189748E-1,3.0764498E-2,4.4102308E-1,-2.7397186E-2,1.02455085E-2,1.24797456E-1,-1.0474354E-2,1.2278623E-2,-2.15468E-2,8.47378E-2,4.010719E-3],"categories":[],"categories_nodes":[],"categories_segments":[],"categories_sizes":[],"default_left":[0,0,0,0,0,0,0,0,0,0,0,0,0,0,0,0,0,0,0],"id":43,"left_children":[1,3,5,-1,-1,7,9,11,13,15,17,-1,-1,-1,-1,-1,-1,-1,-1],"loss_changes":[8.197889E0,3.3746777E0,1.0235779E1,0E0,0E0,1.9913345E1,1.5358763E1,1.166456E1,1.2393367E1,1.576473E1,9.813957E0,0E0,0E0,0E0,0E0,0E0,0E0,0E0,0E0],"parents":[2147483647,0,0,1,1,2,2,5,5,6,6,7,7,8,8,9,9,10,10],"right_children":[2,4,6,-1,-1,8,10,12,14,16,18,-1,-1,-1,-1,-1,-1,-1,-1],"split_conditions":[1.0850397E9,1E0,7.88E-2,1.1508465E-1,-0E0,8.677E-1,2.159E1,7.782E-1,4.1E-3,7.868E1,9.09E-2,-2.7397186E-2,1.02455085E-2,1.24797456E-1,-1.0474354E-2,1.2278623E-2,-2.15468E-2,8.47378E-2,4.010719E-3],"split_indices":[38,16,33,0,0,31,27,20,33,24,29,0,0,0,0,0,0,0,0],"split_type":[0,0,0,0,0,0,0,0,0,0,0,0,0,0,0,0,0,0,0],"sum_hessian":[1.7730271E3,1.9361279E1,1.7536658E3,1.0859E1,8.502278E0,6.037024E2,1.1499634E3,5.696157E2,3.4086613E1,1.0508441E3,9.91193E1,4.1299292E2,1.5662282E2,2.1986866E1,1.2099745E1,7.901661E2,2.6067807E2,5.6905937E1,4.2213364E1],"tree_param":{"num_deleted":"0","num_feature":"39","num_nodes":"19","size_leaf_vector":"1"}},{"base_weights":[2.2706468E-2,1.3726887E-1,-3.444019E-2,5.325099E-1,1.615975E-2,-9.148888E-1,-1.77564E-2,-7.8578115E-2,6.2929046E-1,8.863095E-2,-3.290199E-1,-1.4950322E-1,-0E0,-7.324208E-2,1.9567373E-1,2.9468857E-2,-8.227705E-2,1.3689502E-1,5.3889655E-2,2.3289803E-2,-2.9366257E-2,2.8910631E-2,-6.696212E-2,-3.16706E-2,4.0021772E-4,3.630866E-2,-3.073209E-2],"categories":[],"categories_nodes":[],"categories_segments":[],"categories_sizes":[],"default_left":[0,0,0,0,0,0,0,0,0,0,0,0,0,0,0,0,0,0,0,0,0,0,0,0,0,0,0],"id":44,"left_children":[1,3,5,7,9,11,13,15,17,19,21,-1,-1,23,25,-1,-1,-1,-1,-1,-1,-1,-1,-1,-1,-1,-1],"loss_changes":[1.2064472E1,2.8574612E1,1.6324444E1,9.262283E0,1.1603186E1,5.4707565E0,1.3921794E1,4.808588E0,7.9666786E0,1.4011731E1,1.1124874E1,0E0,0E0,1.4244593E1,1.1833533E1,0E0,0E0,0E0,0E0,0E0,0E0,0E0,0E0,0E0,0E0,0E0,0E0],"parents":[2147483647,0,0,1,1,2,2,3,3,4,4,5,5,6,6,7,7,8,8,9,9,10,10,13,13,14,14],"right_children":[2,4,6,8,10,12,14,16,18,20,22,-1,-1,24,26,-1,-1,-1,-1,-1,-1,-1,-1,-1,-1,-1,-1],"split_conditions":[-1.6E-1,1.219E1,-1.4E-1,1.2139352E9,6.991E-1,9.22E-2,7.726E0,3.74E-2,2.15E-2,7.643E1,0E0,-1.4950322E-1,-0E0,3.08E-2,5E-2,2.9468857E-2,-8.227705E-2,1.3689502E-1,5.3889655E-2,2.3289803E-2,-2.9366257E-2,2.8910631E-2,-6.696212E-2,-3.16706E-2,4.0021772E-4,3.630866E-2,-3.073209E-2],"split_indices":[37,27,37,38,9,3,4,14,6,12,2,0,0,14,30,0,0,0,0,0,0,0,0,0,0,0,0],"split_type":[0,0,0,0,0,0,0,0,0,0,0,0,0,0,0,0,0,0,0,0,0,0,0,0,0,0,0],"sum_hessian":[1.8159762E3,6.1181287E2,1.2041633E3,1.3886891E2,4.7294397E2,1.8498156E1,1.1856652E3,1.6984207E1,1.21884705E2,3.957629E2,7.718107E1,1.246651E1,6.031646E0,9.47631E2,2.3803416E2,1.0384695E1,6.5995116E0,2.6539433E1,9.5345276E1,3.0472964E2,9.1033264E1,2.0249807E1,5.693126E1,2.7549344E2,6.721375E2,1.9573665E2,4.2297516E1],"tree_param":{"num_deleted":"0","num_feature":"39","num_nodes":"27","size_leaf_vector":"1"}},{"base_weights":[-8.835329E-3,3.8633924E-2,-1.667921E-1,-1.2412353E-1,1.1820255E-1,5.005059E-2,-3.7739363E-1,-7.7741563E-1,-6.262002E-2,3.6751565E-1,2.2412518E-2,2.4545804E-1,-2.5320607E-1,-8.633017E-1,-1.8511638E-1,1.4239611E-2,-1.24872945E-1,-6.457048E-2,-3.2251273E-4,5.6552358E-2,-2.516068E-2,-1.04609355E-1,6.1853854E-3,5.962683E-2,-2.2406356E-2,-6.575748E-2,4.047252E-2,-1.3196023E-1,-1.5247227E-2,-3.346193E-2,6.55784E-2],"categories":[],"categories_nodes":[],"categories_segments":[],"categories_sizes":[],"default_left":[0,0,0,0,0,0,0,0,0,0,0,0,0,0,0,0,0,0,0,0,0,0,0,0,0,0,0,0,0,0,0],"id":45,"left_children":[1,3,5,7,9,11,13,15,17,19,21,23,25,27,29,-1,-1,-1,-1,-1,-1,-1,-1,-1,-1,-1,-1,-1,-1,-1,-1],"loss_changes":[1.3386934E1,1.7467417E1,1.9420876E1,1.6236849E1,2.1188353E1,1.212981E1,1.8068512E1,9.957806E0,1.07221985E1,1.5472359E1,1.622009E1,1.44747925E1,1.4210804E1,7.936615E0,1.0781809E1,0E0,0E0,0E0,0E0,0E0,0E0,0E0,0E0,0E0,0E0,0E0,0E0,0E0,0E0,0E0,0E0],"parents":[2147483647,0,0,1,1,2,2,3,3,4,4,5,5,6,6,7,7,8,8,9,9,10,10,11,11,12,12,13,13,14,14],"right_children":[2,4,6,8,10,12,14,16,18,20,22,24,26,28,30,-1,-1,-1,-1,-1,-1,-1,-1,-1,-1,-1,-1,-1,-1,-1,-1],"split_conditions":[4.461E0,7.4E1,6.678E1,2.65E-2,-1.6E-1,7.431E1,8.1429E0,4.8E-3,4.7E-3,9.867E-1,8E1,1.853045E9,7.922E1,6.84E-2,8.054E1,1.4239611E-2,-1.24872945E-1,-6.457048E-2,-3.2251273E-4,5.6552358E-2,-2.516068E-2,-1.04609355E-1,6.1853854E-3,5.962683E-2,-2.2406356E-2,-6.575748E-2,4.047252E-2,-1.3196023E-1,-1.5247227E-2,-3.346193E-2,6.55784E-2],"split_indices":[4,36,34,29,37,10,4,30,3,13,36,38,18,29,10,0,0,0,0,0,0,0,0,0,0,0,0,0,0,0,0],"split_type":[0,0,0,0,0,0,0,0,0,0,0,0,0,0,0,0,0,0,0,0,0,0,0,0,0,0,0,0,0,0,0],"sum_hessian":[1.7562355E3,1.3446266E3,4.1160883E2,4.350774E2,9.095492E2,2.0023883E2,2.1137E2,3.3124622E1,4.019528E2,2.4645172E2,6.630975E2,1.2496041E2,7.527842E1,5.553341E1,1.5583658E2,6.535472E0,2.658915E1,4.0262505E1,3.6169028E2,2.1144618E2,3.5005535E1,1.7267324E1,6.4583014E2,8.093681E1,4.4023598E1,5.197736E1,2.3301062E1,3.9709602E1,1.5823807E1,1.4116307E2,1.4673507E1],"tree_param":{"num_deleted":"0","num_feature":"39","num_nodes":"31","size_leaf_vector":"1"}},{"base_weights":[-2.6678792E-3,-5.0846983E-2,1.8231101E-1,-9.2974946E-2,3.330244E-1,-2.1622877E-1,2.824816E-1,-1.3924685E-1,1.2107241E-1,-2.4502118E-1,5.326693E-1,7.723394E-2,-6.545297E-1,-7.335545E-2,3.1978464E-1,-7.378731E-3,-3.8634945E-2,-7.305845E-3,6.2133927E-2,5.809874E-2,-1.02023624E-1,3.0424844E-2,1.1232468E-1,-2.3584139E-2,5.6051094E-2,1.4033076E-2,-1.2392981E-1,-2.9215597E-2,4.5051362E-2],"categories":[],"categories_nodes":[],"categories_segments":[],"categories_sizes":[],"default_left":[0,0,0,0,0,0,0,0,0,0,0,0,0,0,0,0,0,0,0,0,0,0,0,0,0,0,0,0,0],"id":46,"left_children":[1,3,5,7,9,11,13,15,17,19,21,23,25,-1,27,-1,-1,-1,-1,-1,-1,-1,-1,-1,-1,-1,-1,-1,-1],"loss_changes":[1.5731231E1,2.2742647E1,1.4724504E1,1.2821974E1,1.6624626E1,1.0122402E1,9.816109E0,1.45317955E1,1.6936993E1,1.6928572E1,9.550316E0,5.158335E0,1.0588949E1,0E0,9.3145275E0,0E0,0E0,0E0,0E0,0E0,0E0,0E0,0E0,0E0,0E0,0E0,0E0,0E0,0E0],"parents":[2147483647,0,0,1,1,2,2,3,3,4,4,5,5,6,6,7,7,8,8,9,9,10,10,11,11,12,12,14,14],"right_children":[2,4,6,8,10,12,14,16,18,20,22,24,26,-1,28,-1,-1,-1,-1,-1,-1,-1,-1,-1,-1,-1,-1,-1,-1],"split_conditions":[3.2306E1,1.00249E1,2.075E-1,2.0801299E9,1.86E-2,6.017E-1,6.275E1,1.7872886E9,6.38E-2,6.01E0,6.6E-1,7.43E-2,3.47E-2,-7.335545E-2,1.6E-2,-7.378731E-3,-3.8634945E-2,-7.305845E-3,6.2133927E-2,5.809874E-2,-1.02023624E-1,3.0424844E-2,1.1232468E-1,-2.3584139E-2,5.6051094E-2,1.4033076E-2,-1.2392981E-1,-2.9215597E-2,4.5051362E-2],"split_indices":[0,11,7,38,14,33,34,38,3,5,37,8,7,0,31,0,0,0,0,0,0,0,0,0,0,0,0,0,0],"split_type":[0,0,0,0,0,0,0,0,0,0,0,0,0,0,0,0,0,0,0,0,0,0,0,0,0,0,0,0,0],"sum_hessian":[1.7820402E3,1.421364E3,3.606762E2,1.285774E3,1.3558992E2,6.899307E1,2.9168314E2,1.063481E3,2.2229308E2,3.2800304E1,1.0278962E2,4.044992E1,2.854315E1,8.724782E0,2.8295834E2,7.535131E2,3.099679E2,1.5117213E2,7.1120926E1,1.3985822E1,1.8814482E1,6.503949E1,3.7750126E1,2.2222929E1,1.8226994E1,8.629477E0,1.9913673E1,2.2339233E1,2.606191E2],"tree_param":{"num_deleted":"0","num_feature":"39","num_nodes":"29","size_leaf_vector":"1"}},{"base_weights":[2.7392209E-2,-6.688247E-2,8.351834E-2,-1.3391177E-2,-5.755636E-1,1.802207E-1,-3.7140124E-2,-3.8716335E-2,6.79987E-1,-7.125559E-1,2.6007406E-2,2.0870134E-1,-5.6000495E-1,-1.4014575E-1,2.1497698E-1,-4.6318635E-2,1.6200674E-3,-0E0,1.2793696E-1,-3.9160017E-2,-1.5806593E-1,-1.0748027E-2,3.3049155E-2,-1.2918983E-1,-0E0,-4.730442E-2,-0E0,5.649E-2,-1.0903586E-2],"categories":[],"categories_nodes":[],"categories_segments":[],"categories_sizes":[],"default_left":[0,0,0,0,0,0,0,0,0,0,0,0,0,0,0,0,0,0,0,0,0,0,0,0,0,0,0,0,0],"id":47,"left_children":[1,3,5,7,9,11,13,15,17,19,-1,21,23,25,27,-1,-1,-1,-1,-1,-1,-1,-1,-1,-1,-1,-1,-1,-1],"loss_changes":[9.507034E0,1.706743E1,1.343861E1,9.688902E0,7.5956726E0,1.3156446E1,1.2919008E1,1.115024E1,4.796403E0,9.079891E0,0E0,1.2558657E1,7.235914E0,1.2794905E1,1.1713719E1,0E0,0E0,0E0,0E0,0E0,0E0,0E0,0E0,0E0,0E0,0E0,0E0,0E0,0E0],"parents":[2147483647,0,0,1,1,2,2,3,3,4,4,5,5,6,6,7,7,8,8,9,9,11,11,12,12,13,13,14,14],"right_children":[2,4,6,8,10,12,14,16,18,20,-1,22,24,26,28,-1,-1,-1,-1,-1,-1,-1,-1,-1,-1,-1,-1,-1,-1],"split_conditions":[3.87E-2,2.84E-2,1.7543999E9,1.00559E1,4.58E-2,1.57E2,1.71706E1,7.085E1,7.648E1,4.64E-2,2.6007406E-2,-4.3E-1,6.12E-2,1.128E1,1.87E-2,-4.6318635E-2,1.6200674E-3,-0E0,1.2793696E-1,-3.9160017E-2,-1.5806593E-1,-1.0748027E-2,3.3049155E-2,-1.2918983E-1,-0E0,-4.730442E-2,-0E0,5.649E-2,-1.0903586E-2],"split_indices":[29,30,38,4,21,36,1,24,18,14,0,37,6,5,22,0,0,0,0,0,0,0,0,0,0,0,0,0,0],"split_type":[0,0,0,0,0,0,0,0,0,0,0,0,0,0,0,0,0,0,0,0,0,0,0,0,0,0,0,0,0],"sum_hessian":[1.7874929E3,6.571919E2,1.130301E3,5.993591E2,5.7832832E1,6.3352655E2,4.9677448E2,5.8233356E2,1.7025469E1,5.1070484E1,6.762349E0,6.1351917E2,2.000738E1,3.5750363E2,1.3927084E2,7.7895874E1,5.044377E2,7.2156134E0,9.809856E0,3.4752403E1,1.6318079E1,1.0786312E2,5.05656E2,1.0012256E1,9.995124E0,1.25638626E2,2.3186499E2,7.779603E1,6.1474823E1],"tree_param":{"num_deleted":"0","num_feature":"39","num_nodes":"29","size_leaf_vector":"1"}},{"base_weights":[-6.935159E-3,-2.2931688E-1,2.14809E-2,-6.772794E-1,-3.8115345E-2,4.4739965E-2,-3.0016226E-1,-8.920968E-1,4.840721E-2,8.464124E-2,-6.5852606E-1,2.105677E-2,3.5135865E-1,-4.2082527E-1,8.682032E-2,-2.0314919E-2,-1.5099494E-1,3.5090692E-2,-4.0745888E-2,-1.17141746E-1,1.7011635E-2,6.35933E-3,-3.3880197E-2,7.1582034E-2,-7.0682443E-3,-2.9674672E-2,-1.3924953E-1],"categories":[],"categories_nodes":[],"categories_segments":[],"categories_sizes":[],"default_left":[0,0,0,0,0,0,0,0,0,0,0,0,0,0,0,0,0,0,0,0,0,0,0,0,0,0,0],"id":48,"left_children":[1,3,5,7,9,11,13,15,-1,17,19,21,23,25,-1,-1,-1,-1,-1,-1,-1,-1,-1,-1,-1,-1,-1],"loss_changes":[1.1524682E1,1.6628761E1,1.1397838E1,1.5341337E1,1.2369672E1,1.0112228E1,1.2831112E1,1.104356E1,0E0,1.1171107E1,8.375176E0,1.2971999E1,1.0993521E1,9.342617E0,0E0,0E0,0E0,0E0,0E0,0E0,0E0,0E0,0E0,0E0,0E0,0E0,0E0],"parents":[2147483647,0,0,1,1,2,2,3,3,4,4,5,5,6,6,7,7,9,9,10,10,11,11,12,12,13,13],"right_children":[2,4,6,8,10,12,14,16,-1,18,20,22,24,26,-1,-1,-1,-1,-1,-1,-1,-1,-1,-1,-1,-1,-1],"split_conditions":[7.061E1,1.198E1,8.255E1,2.174E-1,1.575826E6,8.108E1,8.416E-1,7.278E1,4.840721E-2,1.91E-2,4.28E-2,7.97E1,3.422E-1,9.8E1,8.682032E-2,-2.0314919E-2,-1.5099494E-1,3.5090692E-2,-4.0745888E-2,-1.17141746E-1,1.7011635E-2,6.35933E-3,-3.3880197E-2,7.1582034E-2,-7.0682443E-3,-2.9674672E-2,-1.3924953E-1],"split_indices":[18,27,18,3,26,18,9,24,0,21,21,18,31,36,0,0,0,0,0,0,0,0,0,0,0,0,0],"split_type":[0,0,0,0,0,0,0,0,0,0,0,0,0,0,0,0,0,0,0,0,0,0,0,0,0,0,0],"sum_hessian":[1.7717501E3,2.0474344E2,1.5670067E3,5.72417E1,1.4750174E2,1.4673817E3,9.9625015E1,4.9204514E1,8.037186E0,1.2280917E2,2.4692564E1,1.3688325E3,9.8549126E1,9.158646E1,8.038557E0,1.8984463E1,3.0220049E1,8.521935E1,3.758982E1,1.8630781E1,6.0617833E0,1.2445377E3,1.2429486E2,6.3289253E1,3.525987E1,7.821238E1,1.3374077E1],"tree_param":{"num_deleted":"0","num_feature":"39","num_nodes":"27","size_leaf_vector":"1"}},{"base_weights":[-1.3287674E-3,-2.5510034E-1,2.7669143E-2,-4.0262282E-1,2.6357073E-1,6.014934E-1,9.437378E-3,-1.1224314E-1,-8.4560066E-1,8.1943744E-1,-2.1109173E-1,8.8105613E-1,-9.38483E-3,-5.326815E-1,3.082853E-2,1.86698E-2,-5.916386E-2,-1.2123122E-1,-0E0,1.5430731E-2,1.2232182E-1,2.0015422E-2,-7.4917644E-2,2.893778E-3,1.3406596E-1,3.9423496E-2,-5.8010027E-2,-0E0,-1.088602E-1,-7.5422106E-3,1.2776153E-2],"categories":[],"categories_nodes":[],"categories_segments":[],"categories_sizes":[],"default_left":[0,0,0,0,0,0,0,0,0,0,0,0,0,0,0,0,0,0,0,0,0,0,0,0,0,0,0,0,0,0,0],"id":49,"left_children":[1,3,5,7,9,11,13,15,17,19,21,23,25,27,